first_layer_weights:
 [[-5.73474169e-02,  3.23851630e-02, -1.31308958e-02,  5.63873798e-02, -8.20855722e-02,  1.76221505e-02,  3.12441289e-02, -2.11845413e-02, -7.82771856e-02, -5.08996882e-02,  1.88772231e-02, -2.00560316e-02, -6.43973202e-02, -2.03906596e-02, -3.75891067e-02, -5.34915179e-03, -4.24606092e-02,  5.38437963e-02,  6.94783479e-02, -8.36798623e-02],
 [-4.57404554e-02,  1.39696822e-02,  3.61788198e-02,  6.13896102e-02, -8.02544206e-02, -2.16950476e-03,  1.97413787e-02, -2.77200118e-02, -5.99646419e-02, -7.90452212e-03, -5.50904125e-03, -1.91730112e-02, -1.47894919e-02,  3.94257605e-02,  6.32251054e-02,  3.46221030e-04, -5.71736470e-02,  8.62472504e-02, -9.07713175e-03,  2.07522064e-02],
 [-4.62220982e-02, -1.26566067e-02, -2.38877125e-02, -5.83602488e-03,  2.57697776e-02,  6.00232184e-02,  4.83981371e-02,  2.29367614e-02,  5.77578545e-02, -8.61516744e-02,  1.64995790e-02,  1.77610517e-02, -3.53711396e-02, -1.26951411e-02, -6.97094798e-02, -3.98509204e-02, -1.85422078e-02,  1.78759396e-02,  5.86523116e-02, -2.85986662e-02],
 [-3.06800604e-02,  3.48787010e-02, -2.39532888e-02, -1.10573545e-02,  2.29230225e-02, -7.40698874e-02,  5.31839877e-02,  1.55661330e-02, -7.00842068e-02, -6.34364784e-04,  4.27541435e-02, -3.68806981e-02,  2.88682133e-02, -6.12833984e-02,  6.99495673e-02, -6.83234558e-02, -3.71427238e-02,  7.96608925e-02, -8.36791173e-02,  4.46687639e-02],
 [-7.10791126e-02, -7.09949508e-02, -4.10507135e-02,  2.69900188e-02, -7.53460079e-02,  1.74625218e-03,  4.29924577e-02,  7.95200020e-02,  3.69082764e-02, -7.59855658e-02, -7.82049894e-02, -4.86895069e-02, -6.36953637e-02,  4.00801152e-02,  5.14241308e-02, -8.53135958e-02,  4.81262207e-02, -8.02662447e-02, -3.89871150e-02,  2.16123238e-02],
 [-4.85753603e-02, -2.86778994e-02,  5.22764176e-02,  1.83689743e-02,  6.52813464e-02,  8.13062638e-02,  5.90101928e-02, -7.58070126e-02, -4.49102409e-02,  6.15267009e-02,  7.86335021e-02,  4.99648303e-02, -4.47217859e-02,  7.34855235e-03, -4.64945659e-02, -4.44055311e-02,  1.24296397e-02, -2.72481292e-02,  1.25171319e-02, -6.81093186e-02],
 [ 8.40792209e-02, -1.03024393e-02,  4.50403094e-02,  7.60402530e-02,  8.25308859e-02,  5.49630374e-02, -4.31457907e-03,  4.32125479e-03, -2.47330442e-02, -1.18975565e-02,  5.98459244e-02,  4.30752337e-02,  3.57482582e-02, -2.22497731e-02, -5.72462492e-02,  1.55851841e-02, -3.38983238e-02, -6.25432879e-02, -1.18434504e-02,  1.49669945e-02],
 [-5.53235710e-02,  1.54766217e-02, -3.00914831e-02,  2.15023607e-02, -3.18980999e-02,  7.96995163e-02, -1.36363506e-03,  7.37334490e-02,  4.47918177e-02,  6.07447475e-02,  6.58799410e-02,  2.31998786e-02, -2.81992629e-02, -5.54591790e-02,  3.38029638e-02,  5.42911589e-02, -3.81302722e-02, -5.32243848e-02,  7.48493075e-02, -4.02137861e-02],
 [ 7.52532482e-02,  1.05884969e-02,  1.79846883e-02, -1.44394413e-02, -2.90456675e-02, -6.29478395e-02,  1.38263330e-02, -7.59116635e-02, -4.05062102e-02,  1.26931295e-02, -1.76993683e-02,  2.45585963e-02, -5.46151847e-02, -1.15415901e-02,  6.03436679e-03, -4.74125147e-04, -5.90739585e-02, -1.30229145e-02,  3.00713778e-02,  3.07229012e-02],
 [-7.84680694e-02, -1.43078119e-02,  1.90817267e-02, -1.46494806e-02, -3.00596803e-02, -7.36960247e-02,  1.70075223e-02, -8.05212855e-02, -9.46019590e-03, -7.81672820e-02, -1.68582797e-02,  1.55767873e-02, -4.90416996e-02,  6.83659017e-02, -4.68916446e-03, -7.86994025e-02, -5.89818135e-02,  1.13862306e-02, -1.29974112e-02, -2.02791914e-02],
 [-8.13654065e-03,  8.41819495e-02, -3.69562060e-02,  3.11087891e-02, -6.03437982e-02,  9.05609876e-03, -6.00413233e-03, -6.94385171e-02,  4.04727161e-02,  2.73247659e-02, -5.60157076e-02, -2.10991502e-02,  3.84734645e-02, -6.56951070e-02, -4.71677743e-02, -8.51690322e-02, -8.23979974e-02,  8.09655637e-02,  3.75403464e-03, -2.27336213e-02],
 [ 4.97477949e-02,  4.90143448e-02,  5.19894063e-02, -8.19747820e-02,  3.03240716e-02,  4.74936515e-02, -4.57303226e-02, -6.13205954e-02,  1.45918131e-03,  1.64350271e-02, -7.56924599e-02, -6.78955913e-02, -2.26307437e-02,  7.05211163e-02, -3.59938033e-02,  5.56241572e-02, -1.17177293e-02, -8.87038559e-03,  1.67599097e-02, -2.67179832e-02],
 [ 3.98254022e-02,  5.94867766e-02, -1.57864653e-02,  5.74735887e-02,  1.27127469e-02, -2.26716045e-02, -1.78893469e-02,  8.69775377e-03, -3.29346433e-02,  6.99923113e-02,  6.47493005e-02, -6.74091727e-02, -3.46239135e-02, -7.24910125e-02, -9.25727263e-02, -3.24177071e-02,  2.28859112e-02,  3.16482298e-02,  4.00910415e-02,  3.94502422e-03],
 [ 8.14967677e-02, -8.01400617e-02,  2.98787635e-02,  3.98727804e-02, -3.47063541e-02,  6.73064729e-03,  4.06506704e-03,  7.18761757e-02,  4.73940521e-02, -5.42440452e-02,  6.66645989e-02, -4.79202159e-02,  2.39116661e-02, -4.28238660e-02, -1.16031259e-01,  8.70140735e-03,  2.64240466e-02,  4.15282995e-02, -2.65638474e-02, -2.92898878e-03],
 [-3.96719389e-03, -1.43406868e-01, -7.84847662e-02, -1.84013769e-01,  1.35048896e-01, -4.35910746e-02,  1.16611406e-01,  2.17753127e-01,  1.16472535e-01, -2.30858147e-01, -1.18709072e-01,  5.79150356e-02,  7.98073411e-02,  2.47459546e-01, -1.63017586e-01,  1.17637068e-01,  1.90097764e-01,  1.86142877e-01, -1.81242242e-01,  7.35086650e-02],
 [-7.06593273e-03, -9.12623480e-02,  5.43235205e-02,  3.23764347e-02, -4.77547236e-02, -3.05695948e-03,  6.59340322e-02, -5.32830171e-02,  1.28625706e-01, -2.79770400e-02, -8.01569000e-02, -4.49375659e-02, -2.71821618e-02, -1.03979735e-02,  1.96669623e-03, -4.13612947e-02,  8.79339576e-02,  4.06031422e-02,  1.33450637e-02,  7.29393065e-02],
 [-6.47312105e-02, -3.17134336e-02,  7.26860911e-02, -7.02469572e-02,  3.14151570e-02,  3.14115584e-02, -3.98403779e-02,  2.48237252e-02,  6.74177110e-02,  3.25478911e-02,  7.52764195e-02,  4.68146950e-02,  7.73737282e-02,  4.77161855e-02, -7.22223520e-03,  3.11314240e-02,  3.00965086e-02,  8.86513293e-03,  8.05479437e-02, -4.92285714e-02],
 [ 2.36371383e-02, -3.39927152e-02,  5.15799522e-02, -2.00393051e-02, -5.30748963e-02, -8.44398141e-03,  6.49940521e-02, -8.60261396e-02, -6.67187870e-02, -4.02086787e-02, -2.71914080e-02,  8.60138237e-02,  1.50441825e-02,  1.15360916e-02, -2.58187950e-03, -4.33366895e-02,  5.27128577e-02,  7.12007582e-02, -8.23925138e-02, -5.28163090e-02],
 [ 5.08601665e-02, -8.60261172e-03,  1.90071911e-02, -7.72322938e-02, -1.94582865e-02,  6.69186562e-02,  5.77596277e-02, -1.91314518e-03, -1.79608390e-02, -1.75201818e-02, -4.19763289e-02,  3.21410298e-02,  1.04826167e-02, -7.29643852e-02, -2.44818106e-02, -9.36798751e-03,  3.71742994e-02, -8.35799873e-02, -7.67060593e-02,  3.34057212e-02],
 [-3.06046791e-02, -5.11320941e-02, -6.74153119e-02,  6.74116611e-02, -6.19956851e-03, -1.13362446e-02,  5.81888109e-02, -3.91153693e-02,  1.53806284e-02,  2.43252963e-02,  5.11799753e-02, -4.73323576e-02,  8.37884992e-02, -2.35726312e-02,  6.72273934e-02, -7.29096606e-02,  3.74029577e-02,  1.29360184e-02, -6.63293079e-02, -5.22039011e-02],
 [-8.02678466e-02, -3.45205963e-02, -7.22331554e-02,  4.85686660e-02, -6.37972951e-02,  7.49631673e-02, -2.90477276e-02,  4.28887159e-02, -1.62711665e-02, -3.86895202e-02, -1.58798695e-03, -4.45763133e-02,  6.56279474e-02, -1.70811117e-02, -2.90095806e-04,  4.80222553e-02, -2.06266716e-02,  5.07212877e-02, -6.88944682e-02, -5.28644212e-02],
 [-3.01296040e-02,  4.15848196e-02,  7.14240372e-02,  8.01220536e-02,  4.87065315e-02,  1.27197579e-02, -7.21425340e-02, -7.52097070e-02, -8.26343372e-02,  4.49144840e-02, -8.40898529e-02, -2.23835558e-03, -3.46301682e-02,  5.23641258e-02,  3.98159027e-05,  4.78459895e-02, -3.07825878e-02,  8.28005075e-02,  4.18672264e-02,  1.14692152e-02],
 [-2.59209312e-02, -1.37294903e-02,  7.86638707e-02, -1.05915070e-02,  2.55380869e-02, -1.87432095e-02,  3.14234942e-03, -1.16787404e-02,  4.65217531e-02, -6.42876700e-02, -6.00596331e-02, -4.93760183e-02,  1.43014863e-02, -6.13965131e-02, -3.73519622e-02,  3.33395302e-02,  5.14876097e-02, -6.45663366e-02,  6.71640337e-02, -4.09250967e-02],
 [-5.01457006e-02, -6.55261576e-02, -7.52894282e-02, -3.61119658e-02, -4.22586426e-02, -3.42017896e-02, -8.16837400e-02,  6.65357262e-02, -1.87466666e-02,  2.28388086e-02, -1.08129755e-02,  4.39317524e-03, -5.82798719e-02, -2.05661580e-02, -7.92409852e-02, -5.11608869e-02, -7.71220624e-02, -3.34131159e-02,  1.00796297e-02, -3.75487171e-02],
 [-3.45308147e-02,  5.00126928e-02, -8.32279772e-02, -6.08381703e-02,  3.38917971e-02, -7.25099891e-02, -6.23723827e-02, -7.95736909e-02, -5.63267097e-02,  3.51475850e-02,  2.24213600e-02, -1.13047734e-02, -4.99635674e-02,  3.76424938e-02, -5.85500300e-02,  1.99304521e-02, -1.40767619e-02,  1.57176629e-02,  4.21030223e-02,  7.62933493e-03],
 [ 5.81854433e-02,  9.08505917e-03,  1.21037662e-02,  6.41634315e-02,  6.48162961e-02, -2.97208726e-02, -2.56626531e-02, -4.49778810e-02, -7.17802867e-02,  7.84388781e-02, -1.02291182e-02,  6.75197691e-03,  4.43979949e-02, -4.01344076e-02,  6.70392662e-02,  5.90478629e-02,  3.85080501e-02, -6.68021142e-02, -6.71419129e-02,  2.84310579e-02],
 [ 1.92626864e-02, -2.01713294e-02, -3.31198461e-02,  8.03271383e-02, -8.40616152e-02, -7.26686269e-02, -6.32072315e-02,  5.92364818e-02, -5.39074354e-02, -4.37169522e-03, -2.04312950e-02,  7.27166981e-02,  3.16942185e-02,  4.37661260e-03,  6.80357963e-02,  2.61527374e-02, -4.67277132e-02, -3.98350842e-02, -2.32219696e-04,  4.57313508e-02],
 [ 4.00087535e-02,  1.46169960e-02, -5.56132570e-02,  5.34470826e-02,  5.80253452e-02,  3.13762724e-02,  4.10774052e-02, -3.32631767e-02,  4.97371554e-02, -3.11072469e-02, -8.18461776e-02,  7.18976855e-02, -6.62177205e-02,  1.10147223e-02, -2.10585296e-02,  3.35244387e-02, -2.29099914e-02, -2.68709511e-02,  7.14621842e-02,  2.77771875e-02],
 [ 7.13199973e-02, -2.47125700e-02, -3.09072770e-02, -2.69347392e-02,  5.47280759e-02,  3.38894129e-03,  5.65930158e-02, -5.11107370e-02,  4.48218584e-02,  2.02693641e-02,  8.38890374e-02, -8.34794641e-02, -6.04903623e-02, -9.99256968e-03, -5.49974702e-02, -2.90511250e-02, -8.30348283e-02,  5.99208623e-02,  2.12504268e-02, -4.69248816e-02],
 [-5.22028729e-02,  6.42640591e-02, -6.96721971e-02,  3.09961513e-02,  3.13193053e-02, -2.19254494e-02, -6.47951588e-02, -6.53517544e-02,  2.59367675e-02, -4.29752469e-02, -6.44092038e-02,  6.64479285e-03, -4.47313637e-02, -1.92978606e-02, -7.87176937e-02, -4.69375290e-02, -1.45208761e-02, -3.08009386e-02,  2.65364721e-02,  2.81808525e-02],
 [ 2.79127732e-02, -5.76134399e-02,  4.43930924e-03, -1.61873773e-02, -7.92640895e-02,  5.07684946e-02, -8.36364850e-02, -5.08532412e-02,  1.17430836e-02,  4.22114730e-02, -1.76266879e-02, -2.50096507e-02,  7.04753697e-02,  4.20304984e-02,  2.49131545e-02,  8.54498595e-02,  4.19833958e-02, -3.44550796e-02, -4.64249514e-02,  1.53767914e-02],
 [ 4.42788005e-03, -5.48840463e-02, -1.86018571e-02, -7.45789632e-02, -2.30373144e-02, -6.63163513e-02, -6.74950182e-02, -7.84639269e-02, -3.76346447e-02, -3.98162007e-03, -4.55509275e-02, -1.50974095e-02, -5.30491024e-03,  1.15643069e-02, -3.23521458e-02,  2.62671337e-02, -1.05224922e-02,  4.92043644e-02, -1.25301257e-02,  6.78972006e-02],
 [ 8.16895440e-02,  1.87259458e-03, -3.36400382e-02,  7.86926523e-02,  8.95159598e-03,  3.95276817e-03,  3.25546414e-02, -9.96697247e-02, -8.90425295e-02,  3.98310088e-02,  1.03004239e-01, -2.47747521e-03,  2.01843549e-02, -5.51902279e-02,  2.87089311e-02, -7.86844492e-02,  4.09221575e-02,  5.36755770e-02, -1.99962910e-02, -8.63390937e-02],
 [ 2.82619987e-02,  2.93211117e-02,  3.34759802e-02,  8.20214078e-02, -6.89185085e-03,  7.20820799e-02,  6.28914759e-02,  2.65851766e-02, -5.01079578e-03,  7.22908974e-02,  1.23468198e-01,  5.27634770e-02, -6.46752343e-02, -1.38728216e-03, -7.23502785e-02, -4.37229238e-02, -4.43780683e-02, -1.11881949e-01,  2.16345303e-02, -7.06596076e-02],
 [ 2.85925955e-01, -2.26434946e-01,  2.34027147e-01,  4.96034250e-02,  1.77021965e-01,  2.19024718e-02,  4.00649905e-02, -5.47708645e-02,  1.22584686e-01,  1.73729569e-01,  2.81722128e-01, -1.37737602e-01, -1.38329566e-01, -9.23929140e-02, -2.63906479e-01, -2.13228837e-01, -1.94816157e-01, -1.57063246e-01, -1.97185040e-01, -8.93708020e-02],
 [ 1.79719627e-01, -1.21481329e-01,  2.47307539e-01,  8.21025670e-02,  1.41653657e-01, -9.67360809e-02,  2.46203616e-02, -1.89336330e-01,  1.26374096e-01,  1.94173932e-01,  1.66546881e-01, -2.04443187e-01, -2.21616656e-01, -9.79594961e-02, -1.99804589e-01, -1.60973310e-01, -1.55083984e-01, -2.15682909e-01, -1.69735059e-01, -9.10009816e-02],
 [ 9.51472968e-02, -1.97834387e-01,  2.03456342e-01,  1.50266558e-01,  2.76413679e-01, -8.63430500e-02,  2.29783505e-02, -4.92861941e-02,  2.34075069e-01,  2.11313441e-01,  1.51581898e-01, -2.75330991e-01, -2.60895967e-01,  1.27012715e-01, -1.81163236e-01, -8.09783041e-02, -1.81408435e-01, -1.35435209e-01, -1.82611391e-01,  6.85621286e-03],
 [ 3.87157172e-01,  1.09816492e-01,  4.06568974e-01,  7.39465505e-02,  3.93161625e-01, -5.57715036e-02, -8.00256655e-02, -2.64966607e-01, -5.55340387e-02,  2.33990997e-01,  2.38720551e-01, -2.04387829e-01, -1.25289366e-01, -5.38089313e-02, -6.60543516e-02, -1.63766384e-01, -2.40376487e-01, -2.92292833e-01,  5.28017953e-02, -5.80763258e-02],
 [ 2.87043303e-01,  1.85319483e-01,  2.34405741e-01,  1.44747078e-01,  2.65649468e-01, -1.82371795e-01, -2.87394095e-02, -2.34954849e-01,  1.17912693e-02,  2.87576646e-01,  2.99293607e-01, -2.39461258e-01, -6.20447770e-02, -1.22120135e-01,  1.07927667e-02, -1.86742708e-01, -2.39722937e-01, -2.60178775e-01,  4.54923175e-02, -1.11147933e-01],
 [ 2.43674472e-01,  2.40306288e-01,  3.04203123e-01,  2.56639004e-01,  3.44019175e-01, -2.34918475e-01,  1.31542414e-01,  5.25709521e-03,  9.31269974e-02,  1.86612278e-01,  4.03470963e-01, -3.85658622e-01, -8.63981098e-02, -4.65916730e-02,  1.18581027e-01, -1.24551803e-01, -2.66273677e-01, -4.29369330e-01, -1.04660705e-01,  3.65502238e-02],
 [ 3.24767053e-01,  1.25271574e-01,  3.61807615e-01,  3.04271877e-01,  4.76972252e-01, -2.75395662e-01,  2.16694951e-01,  8.07695612e-02,  2.80449033e-01,  3.62098634e-01,  5.05478144e-01, -4.11483705e-01, -2.35483885e-01, -4.92223687e-02,  2.29728296e-01, -1.38811827e-01, -2.59853542e-01, -3.01670134e-01, -2.23284736e-01, -3.61452438e-02],
 [ 5.30088484e-01,  1.56238034e-01,  3.02936912e-01,  3.13419819e-01,  1.89486712e-01, -1.92615733e-01,  1.23083860e-01, -4.65410538e-02, -7.55571574e-02,  2.17118278e-01,  6.84385598e-01, -2.76693314e-01, -2.52029926e-01, -8.96049663e-02,  6.15287162e-02, -9.84267667e-02, -1.88572764e-01, -2.47398406e-01, -9.30367410e-02, -4.13409062e-02],
 [ 4.57547128e-01,  5.68884499e-02, -1.90887481e-01, -1.71110496e-01, -1.38808504e-01,  2.23855659e-01,  3.53643335e-02,  1.18125238e-01, -5.06737195e-02, -1.71407908e-01,  2.39875525e-01,  1.11964934e-01, -9.41418461e-04, -8.01268741e-02,  6.59276024e-02, -1.24432944e-01,  5.94850862e-03,  2.12128926e-02,  2.03106165e-01, -4.06063460e-02],
 [ 2.99544096e-01, -1.55541718e-01,  2.55482346e-01,  2.98124105e-01,  3.78147274e-01,  3.54626216e-02,  2.30758414e-01,  2.53105313e-01,  9.25267190e-02,  1.51388615e-01,  1.58796400e-01, -4.02809173e-01, -1.38761282e-01, -2.08926812e-01, -8.31564069e-02, -7.52522796e-02, -3.74966145e-01, -2.67985255e-01, -2.40354523e-01,  1.08782314e-01],
 [ 4.92826283e-01,  8.06218851e-03,  1.83770850e-01,  3.98178905e-01,  4.07519251e-01, -1.66041270e-01,  4.08976614e-01,  2.25992262e-01,  4.24882084e-01, -1.37470737e-01,  1.74915910e-01, -2.98194021e-01, -2.52499342e-01,  5.41804731e-02, -4.20297422e-02,  2.68406957e-01, -2.34705806e-01, -6.95660934e-02, -4.81790870e-01,  3.10040951e-01],
 [ 4.65524614e-01, -5.80829978e-02,  2.39005730e-01,  3.86417359e-01,  4.39058185e-01, -2.87711829e-01,  2.80613065e-01,  1.29914984e-01,  3.12608331e-01, -7.78218433e-02,  6.62696242e-01, -2.97823757e-01, -3.52868021e-01, -1.88776299e-01, -1.21210136e-01,  2.42048413e-01, -3.29665661e-01, -1.88324422e-01, -3.50139052e-01,  1.28731400e-01],
 [ 5.30400634e-01,  2.91304231e-01,  5.54734945e-01,  4.73200530e-01,  5.49660981e-01, -3.63975912e-01, -3.50438088e-01, -3.47500324e-01, -2.60611773e-01,  4.76058215e-01,  4.59586829e-01, -3.57781470e-01, -2.25405693e-01, -1.53328255e-01,  2.08441526e-01,  1.04480058e-01, -4.72397894e-01, -3.60195130e-01,  2.25500017e-01, -2.67832488e-01],
 [ 3.40388447e-01,  5.12854904e-02,  4.06602710e-01,  4.23114747e-01,  3.02614838e-01, -3.53062928e-01, -4.00165945e-01, -2.78171867e-01, -1.43008396e-01,  4.61814463e-01,  2.65632629e-01, -3.32720488e-01, -3.80297363e-01, -2.43528679e-01, -2.22876370e-01, -1.51134387e-01, -3.81081849e-01, -3.08407068e-01,  6.58602268e-02, -3.48117441e-01],
 [ 3.73896331e-01,  1.58825051e-02,  4.13023621e-01,  4.48189139e-01,  4.46426123e-01, -3.40947628e-01, -2.80580908e-01, -3.90812904e-01, -1.28897431e-03,  4.63575572e-01,  1.54980257e-01, -3.59665245e-01, -2.98870623e-01, -2.21584916e-01, -2.30486825e-01, -2.53951102e-01, -5.32104850e-01, -5.56217313e-01, -1.07654698e-01, -2.33782828e-01],
 [ 2.21632883e-01, -9.78115723e-02,  2.20065743e-01,  3.82400006e-01,  2.98597485e-01, -2.74532169e-01, -9.09386724e-02, -3.86196077e-01,  8.36480558e-02,  3.57501090e-01,  1.39716551e-01, -2.42223278e-01, -3.48430246e-01, -2.03975514e-01, -4.75743115e-02, -8.48348141e-02, -3.68321210e-01, -3.23895901e-01, -1.24936685e-01, -8.00659508e-02],
 [ 6.59394711e-02, -8.84198025e-02,  3.11997920e-01,  1.72857016e-01,  1.72789693e-01, -3.44963908e-01, -1.03330985e-01, -1.16577186e-01,  1.76232055e-01,  2.18056262e-01,  6.84849843e-02, -3.07842523e-01, -6.27865419e-02, -2.66629606e-01, -1.64604530e-01,  1.53114204e-03, -1.86819479e-01, -3.24824840e-01, -7.55071566e-02, -1.18896231e-01],
 [ 1.91753089e-01, -1.36937439e-01,  2.23170847e-01,  2.38863796e-01,  2.43599534e-01, -3.36315513e-01, -1.07220836e-01, -7.27330446e-02,  2.75087357e-01,  3.18261772e-01,  1.92612082e-01, -3.76117498e-01,  3.74662280e-02, -1.63037077e-01, -8.06268528e-02, -1.83232129e-03, -2.08403125e-01, -3.58066410e-01, -1.25733152e-01, -7.01619387e-02],
 [-3.24326977e-02, -6.42876476e-02, -6.21788613e-02,  2.05680504e-02,  3.20343673e-03,  2.44835615e-02,  7.68267065e-02,  2.29714066e-02,  4.45791930e-02,  6.99031055e-02, -7.70017207e-02,  7.06031471e-02,  5.39236516e-02,  1.57623366e-02,  5.36635518e-02, -4.00405303e-02,  1.38149858e-02,  7.77353346e-03, -5.01594357e-02, -1.77834854e-02],
 [-7.98968971e-03,  5.25536090e-02,  5.95476776e-02,  5.13998419e-02,  6.95608854e-02,  2.13122368e-02,  1.00731850e-02,  1.52375847e-02,  4.47119027e-02, -4.67953309e-02, -1.23447031e-02,  5.45200109e-02, -1.66936144e-02, -7.99651891e-02, -5.26289679e-02,  5.04265428e-02,  6.95655346e-02, -7.16373697e-02, -1.58376321e-02,  4.14605141e-02],
 [-3.74494419e-02, -3.43892761e-02, -1.85352042e-02, -5.16588651e-02, -5.37961125e-02,  5.86811453e-02,  5.33289313e-02, -2.73467451e-02, -2.60533430e-02,  2.05427408e-02, -7.18659684e-02, -6.69033676e-02, -2.51437128e-02, -5.89161292e-02, -2.72309035e-03, -5.04757352e-02, -8.19029659e-02,  1.35649815e-02,  1.19733736e-02, -4.71408330e-02],
 [ 4.90039736e-02,  5.26643544e-03,  4.87363040e-02, -4.37798798e-02,  3.32257301e-02, -9.45467502e-03, -2.12277323e-02,  2.01327950e-02,  2.29969621e-03, -3.97133790e-02,  8.12256634e-02, -8.47194791e-02, -7.41252303e-02,  4.38133627e-03,  2.05750763e-02, -8.09646621e-02,  5.34024984e-02, -6.15898706e-02,  4.57259566e-02,  5.29373735e-02],
 [ 7.71781802e-03,  2.81482711e-02,  1.87373385e-02, -3.72792035e-03,  3.53052095e-02, -7.74498284e-02,  2.69219279e-03,  8.09422135e-02, -7.50864148e-02,  6.03912920e-02,  4.77618277e-02, -3.16255726e-02,  7.56931454e-02, -7.79929757e-02,  2.09457874e-02,  7.81036168e-02, -1.30089670e-02,  4.02865112e-02, -3.22394222e-02, -6.65546134e-02],
 [-7.92455375e-02, -6.30025640e-02,  7.96208382e-02,  8.15477967e-02, -6.33151159e-02,  6.63818121e-02, -4.74457182e-02,  2.67568454e-02,  2.55290493e-02,  4.36991453e-02, -3.80153432e-02, -3.71653177e-02,  8.44957829e-02,  7.19951540e-02,  7.24409968e-02, -5.12809418e-02, -4.29813825e-02, -6.56990409e-02,  3.36906761e-02, -5.04229441e-02],
 [ 8.59261677e-02,  1.00461043e-01,  3.39825153e-02,  7.61650950e-02, -6.28493875e-02, -9.93315578e-02,  1.55071029e-02, -8.64278600e-02,  3.53567488e-02,  8.35262910e-02, -2.31115334e-02, -8.19549151e-03, -7.62650892e-02, -2.39957329e-02, -1.16102584e-02, -6.66348822e-03, -5.91760203e-02, -2.60347407e-02,  6.96658343e-02, -3.12796049e-02],
 [ 4.96635847e-02,  1.50280580e-01,  1.82170376e-01,  2.98165649e-01,  2.16000766e-01, -9.96881351e-02,  1.56293511e-01,  2.70745784e-01,  2.28175491e-01, -8.26168880e-02, -1.78065840e-02, -2.01143250e-01, -1.35141060e-01, -1.35645062e-01,  8.74208063e-02, -1.15634426e-01,  6.44518360e-02, -2.41540521e-01, -2.75157928e-01,  1.58388078e-01],
 [ 1.37091473e-01,  1.58863828e-01,  3.09669346e-01,  3.00944626e-01,  3.71949643e-01, -1.63491979e-01, -3.53020318e-02,  1.10175073e-01,  2.65018381e-02,  2.30936959e-01,  2.08602831e-01, -2.09567025e-01, -1.30831197e-01, -2.48473540e-01,  1.40765935e-01, -1.83624238e-01, -1.71624124e-01, -3.20069283e-01, -1.28776595e-01,  1.49450943e-01],
 [ 1.38886094e-01, -1.27680413e-02,  1.43754601e-01,  8.79672244e-02,  1.05590709e-01, -5.68398796e-02, -3.60178724e-02, -1.66861355e-01, -9.02158692e-02,  1.28785282e-01,  9.11474004e-02, -1.93637908e-01, -2.54893690e-01, -2.65489593e-02, -3.52648012e-02, -1.99771211e-01, -1.29337996e-01, -1.73990324e-01,  2.86893360e-02, -5.59248263e-03],
 [ 3.06677580e-01, -8.98307562e-02,  2.78019369e-01,  4.37692776e-02,  1.85214341e-01,  3.98770794e-02,  5.87522127e-02, -9.28820819e-02,  1.13688231e-01,  2.93803960e-01,  3.19964677e-01, -2.57398665e-01, -3.47019821e-01,  1.00327916e-01, -2.43867487e-01, -1.14433058e-01, -3.18507105e-01, -9.93040726e-02, -1.04611747e-01, -5.27387150e-02],
 [ 3.08242887e-01, -3.30570862e-02,  3.50253582e-01,  1.96056589e-01,  3.34165007e-01, -5.03530726e-02,  2.47883826e-01, -4.81368937e-02,  2.21023053e-01,  2.59339958e-01,  2.49699295e-01, -2.80612200e-01, -3.43270600e-01,  1.37519181e-01, -9.72447097e-02, -1.22977726e-01, -3.28259796e-01, -3.44450086e-01, -2.70566255e-01,  4.67799343e-02],
 [ 2.79997855e-01, -1.82214491e-02,  3.51795793e-01,  2.14260191e-01,  4.15563971e-01, -2.00044572e-01,  6.00203089e-02, -3.76212597e-01,  2.75095433e-01,  3.21165711e-01,  2.25438118e-01, -3.83360296e-01, -4.13308769e-01,  2.67987162e-01, -1.30212709e-01, -8.65161568e-02, -2.89801300e-01, -1.89053789e-01, -1.52845815e-01, -1.42069817e-01],
 [ 1.83595940e-01, -1.43122628e-01,  2.39770293e-01,  5.26018701e-02,  4.33870167e-01, -9.39107165e-02,  2.01102585e-01, -6.06525838e-02,  4.24124330e-01,  1.03731103e-01,  1.06753781e-01, -5.02885640e-01, -2.52722412e-01,  4.54537898e-01, -1.97632194e-01,  1.51503971e-02, -3.49195093e-01,  2.18379021e-01, -1.99515268e-01,  2.86259372e-02],
 [ 3.27624619e-01, -2.97189593e-01,  2.21139401e-01, -2.40372121e-02,  4.88754094e-01, -1.48643628e-01,  1.94525212e-01, -5.44286184e-02,  5.47600091e-01,  2.17618495e-01,  1.60211608e-01, -6.51351988e-01, -2.13472977e-01,  3.51178527e-01, -2.55416185e-01,  3.07211559e-02, -5.08378148e-01, -1.34175259e-03, -3.39888155e-01,  5.19634411e-02],
 [ 5.98760486e-01,  1.09915078e-01,  3.02050501e-01,  9.03156772e-02,  7.11863399e-01, -4.21267390e-01,  1.20502852e-01, -2.17139885e-01,  2.85570532e-01,  3.13171446e-01,  2.76014898e-02, -7.56358325e-01, -3.32305670e-01,  4.27121311e-01,  1.11900985e-01, -6.61487058e-02, -4.56898808e-01,  1.05976230e-02, -2.05273569e-01,  1.50492281e-01],
 [ 3.33765328e-01, -2.03362759e-02,  1.20576628e-01,  4.37131785e-02,  3.61418724e-01, -1.88823894e-01,  1.91383079e-01,  4.65540960e-02,  3.52200091e-01,  3.53365928e-01,  6.93807527e-02, -7.64832377e-01, -5.18422961e-01,  1.47050798e-01,  7.41626024e-02,  1.19953919e-02, -4.19732720e-01, -1.79750621e-01, -4.79880162e-03, -7.71631300e-02],
 [ 1.38375521e-01, -9.80991498e-02, -6.88128993e-02, -1.05760984e-01,  8.22455063e-02,  2.50058435e-02,  1.22789554e-01,  1.91661760e-01,  2.69064069e-01,  1.40861809e-01,  2.41195232e-01, -4.50574398e-01, -5.36986768e-01, -6.04792163e-02, -6.79833144e-02, -2.21081704e-01, -2.35707015e-01, -1.11717813e-01,  3.10598403e-01, -2.60568708e-01],
 [ 2.29650840e-01,  3.05251162e-02, -1.01788705e-02, -4.66898903e-02,  1.24672741e-01, -1.87084794e-01,  1.66663229e-01, -1.53854072e-01,  1.14490338e-01,  2.95131266e-01,  2.68304020e-01, -2.76818633e-01, -6.58693969e-01,  6.09879456e-02,  7.28428215e-02, -1.36567354e-01, -2.85121500e-01, -2.00282615e-02,  2.32994959e-01, -3.15573484e-01],
 [ 3.64666194e-01, -1.83635414e-01,  2.28031445e-02,  9.44342837e-02,  1.75177276e-01, -6.30068630e-02,  2.40982682e-01,  1.31783888e-01,  2.57123142e-01,  1.85918629e-01,  2.23119453e-01, -4.42211658e-01, -3.13228637e-01, -1.73420444e-01, -3.55921686e-01, -6.20486028e-02, -4.82945085e-01,  9.13677923e-03,  4.09832329e-01, -3.30509484e-01],
 [ 4.38681334e-01, -1.37399212e-01, -2.17085816e-02,  1.96540073e-01,  6.73408657e-02, -1.44700885e-01,  1.99226979e-02,  2.86126792e-01,  1.68557838e-01,  1.65331587e-01,  2.20095813e-01, -3.25022668e-01, -1.51848823e-01, -1.77478358e-01, -2.08637372e-01, -3.29785310e-02, -2.63020039e-01, -1.65528581e-01,  1.71992227e-01, -4.33525652e-01],
 [ 5.37729919e-01, -8.92374888e-02,  2.35132575e-01,  2.35450462e-01, -5.48174642e-02, -2.13423103e-01, -2.96477247e-02,  1.30120173e-01,  4.38350290e-02,  8.24321806e-02, -3.79858585e-03, -2.26828188e-01, -2.29580149e-01,  6.50441572e-02, -4.34939153e-02,  1.32346645e-01, -3.10742885e-01, -3.01172584e-02,  2.37335309e-01, -4.71484363e-01],
 [ 5.95219791e-01,  3.53192985e-02,  3.34658235e-01,  2.72680700e-01,  1.05400845e-01, -1.31125063e-01, -1.09012134e-01,  8.10685754e-02, -8.86270925e-02,  3.13704237e-02, -1.94022328e-01, -3.20097655e-01, -1.17078394e-01, -6.04430679e-03, -1.73451439e-01,  2.31455654e-01, -2.53952384e-01, -2.18695328e-01,  7.73775205e-02, -5.30296564e-01],
 [ 6.76175475e-01, -7.20713139e-02,  1.25384286e-01,  3.95695567e-01,  1.03550360e-01, -2.00275421e-01, -4.81095910e-02,  7.56038874e-02, -1.47883698e-01,  1.38910413e-01, -3.47082503e-02, -4.83413070e-01,  1.21050686e-01, -2.76531409e-02, -1.38492435e-01,  8.66337270e-02, -2.74424464e-01, -2.34564364e-01,  1.52450278e-01, -4.40069020e-01],
 [ 4.32446450e-01, -5.53105138e-02,  2.26525575e-01,  2.71173656e-01,  1.76752388e-01, -4.44321603e-01,  4.33563404e-02, -1.50695387e-02,  9.08188522e-02,  1.87325135e-01, -1.35983840e-01, -3.83073926e-01, -2.71818880e-02, -3.94512825e-02, -2.79550433e-01,  1.87801495e-01, -3.09688598e-01, -8.19885731e-02,  1.27565697e-01, -4.30933952e-01],
 [ 3.10832649e-01,  3.98513265e-02,  4.50111896e-01,  4.74170774e-01,  3.31609100e-01, -7.24994600e-01, -6.01503551e-02, -6.31365553e-02, -4.25028335e-03,  3.12870294e-01, -1.06947295e-01, -2.88745046e-01, -5.94398230e-02,  6.89236075e-02, -9.67666358e-02,  1.20440528e-01, -5.61480403e-01, -1.54557198e-01,  4.74038683e-02, -2.66195297e-01],
 [ 2.26491079e-01,  2.82427203e-02,  4.40289706e-01,  4.35545772e-01,  2.72543192e-01, -4.07343715e-01, -6.55245110e-02, -1.01908356e-01,  1.61353759e-02,  3.41477424e-01, -3.07196379e-02, -2.05049112e-01, -1.23048328e-01, -1.87783435e-01, -3.61400358e-02, -1.44089758e-02, -3.57316703e-01, -3.54804188e-01,  9.58163589e-02, -2.10069492e-01],
 [ 3.87277454e-01, -2.07698479e-01,  4.44963515e-01,  4.62564141e-01,  3.45022649e-01, -3.62500072e-01,  9.80898365e-02, -1.06146112e-01,  2.19375730e-01,  2.94349372e-01, -1.11834437e-03, -2.12611079e-01, -1.59037672e-02, -4.15224470e-02, -3.91729563e-01,  1.27717284e-02, -5.94057798e-01, -3.03399742e-01, -3.13337088e-01,  5.76467775e-02],
 [ 1.35384962e-01, -1.98315218e-01,  7.48087913e-02,  1.14399821e-01,  1.47591501e-01,  1.29113466e-01,  1.81032613e-01,  3.43851484e-02,  1.19908579e-01,  1.03506736e-01, -2.78481804e-02, -8.83874223e-02, -5.75975552e-02,  2.22770989e-01, -3.14507246e-01,  4.27919738e-02, -2.23666355e-01,  1.54998183e-01, -2.16115385e-01,  2.22170502e-01],
 [-4.89785150e-02, -2.30289921e-01, -1.32319167e-01, -1.46606490e-01,  3.54526634e-03,  9.19207409e-02,  1.35689557e-01,  4.25759964e-02,  2.12206244e-01, -3.69051211e-02,  5.18647581e-02, -1.11595452e-01, -8.79915059e-02,  1.55266777e-01, -1.95317850e-01, -1.37865786e-02, -6.21120781e-02,  1.10905528e-01, -1.61789998e-01,  1.68733209e-01],
 [-1.61058009e-02,  5.04539460e-02,  1.58093795e-02,  1.36546791e-03, -2.04169825e-02,  6.22459203e-02, -6.20306917e-02, -4.75775748e-02, -2.44886912e-02, -8.44453424e-02,  1.01524144e-02, -3.05766687e-02,  2.11025029e-03, -5.39349727e-02,  6.16766810e-02, -1.52652860e-02,  3.13261002e-02, -7.05230534e-02,  4.53909636e-02,  7.26617426e-02],
 [ 5.90600818e-02, -8.31175670e-02, -3.19007374e-02,  7.46723264e-02, -1.67144164e-02,  7.03648180e-02,  2.59939879e-02,  3.88814509e-02, -8.44179839e-03, -5.21863736e-02,  7.50514120e-03,  8.60242695e-02, -7.49421790e-02,  7.45572597e-02, -5.29970005e-02, -4.86516505e-02, -3.63455899e-02, -6.30212873e-02,  1.93210095e-02, -8.37745219e-02],
 [ 5.81696332e-02, -3.89366746e-02, -7.43034109e-02, -1.00258961e-02, -4.56360132e-02,  3.92162651e-02,  8.45742971e-02, -8.96114856e-03,  7.19310790e-02,  4.33452576e-02, -5.07102422e-02, -8.56095627e-02, -6.68353364e-02,  3.97602320e-02, -4.82825451e-02,  5.51878661e-02,  7.68189132e-02, -4.52585034e-02,  3.32628712e-02,  5.85909635e-02],
 [ 2.91595832e-02, -5.15911654e-02, -5.54025397e-02,  8.44074041e-02,  5.46652824e-03, -8.37399438e-02,  8.38319957e-03,  4.51246649e-03,  1.31298304e-02,  6.01131618e-02,  3.03153396e-02,  6.11146539e-02,  4.49904203e-02,  8.28601867e-02,  2.21114308e-02, -2.12909803e-02,  1.17478445e-02,  4.69429642e-02,  4.61612791e-02, -1.09808147e-02],
 [-7.01274537e-03, -1.47012621e-01, -1.37293443e-01, -6.71657920e-02, -5.72363697e-02,  1.10278308e-01, -9.11312476e-02,  1.75763398e-01,  1.87006965e-01, -1.10043921e-01,  1.07910715e-01,  1.54733390e-01,  1.20906062e-01, -1.90526932e-01, -2.46770337e-01,  1.72863632e-01,  6.76196739e-02,  2.17935406e-02,  1.56143561e-01, -4.32252660e-02],
 [ 2.59986460e-01,  8.28059018e-02,  2.37269849e-01,  2.84369171e-01,  3.65420312e-01, -1.40355974e-01,  7.73721412e-02,  1.60430223e-01,  2.61235297e-01,  9.75178406e-02,  2.00365901e-01, -3.11937898e-01, -2.79562026e-01, -2.19650313e-01, -4.62036617e-02,  6.19451143e-02, -6.21443614e-02, -2.92145461e-01, -1.73508793e-01,  1.20957442e-01],
 [ 1.68385908e-01,  1.55614987e-02,  3.85066748e-01,  3.07500392e-01, -2.32124031e-02, -1.35283694e-01, -1.95075616e-01,  1.15444370e-01,  2.79976018e-02, -3.14423218e-02,  2.26738870e-01, -3.02274883e-01, -9.38036069e-02, -3.19456533e-02,  1.53325066e-01,  9.29547250e-02,  1.17841251e-01, -6.22423775e-02, -1.47427991e-02, -1.19877130e-01],
 [-1.96011975e-01,  3.23181123e-01,  4.85543162e-02,  1.04223907e-01,  1.60557739e-02, -2.12045342e-01, -2.31403694e-01, -1.87504198e-02,  1.52311221e-01,  3.95894378e-01,  1.02984242e-01, -3.20661962e-01,  5.95105952e-03,  1.76589694e-02,  3.09430838e-01,  1.50394633e-01, -3.09631646e-01,  6.87195361e-02,  1.25110164e-01, -2.27697909e-01],
 [ 2.30350301e-01,  9.12672058e-02,  1.01836272e-01, -7.58286417e-02,  1.45191014e-01, -1.72370553e-01, -2.02893510e-01, -9.02567804e-02,  7.62024894e-02,  3.99983913e-01,  2.20894605e-01, -3.45339239e-01, -6.23409823e-02,  2.32876670e-02,  2.49728203e-01,  2.57513255e-01, -3.28902096e-01, -2.05653086e-02,  2.52134830e-01, -2.57565707e-01],
 [ 2.83669889e-01,  3.09812427e-01,  2.02366393e-02, -1.19921163e-01,  2.05926657e-01, -2.39969730e-01, -2.54553020e-01,  4.33478691e-02,  2.34746680e-01,  2.98280716e-01,  1.69940606e-01, -6.70747459e-01,  9.13992226e-02,  6.97597340e-02,  3.94580364e-01,  1.96296811e-01, -3.95488054e-01, -1.27547845e-01, -6.00938983e-02, -3.13409835e-01],
 [ 4.44775932e-02,  1.27905920e-01,  2.96675771e-01, -4.18864153e-02,  3.39926720e-01, -2.33070716e-01, -1.74143374e-01,  9.32895392e-02,  2.58223236e-01,  2.76513040e-01,  2.74720550e-01, -7.48032510e-01,  5.19126616e-02,  2.07019243e-02,  3.83657306e-01,  2.37830788e-01, -6.20696962e-01, -3.58120427e-02, -3.72757465e-01, -1.76495090e-01],
 [ 2.75066663e-02, -7.04251528e-02,  3.58979791e-01, -3.64352137e-01,  3.70318025e-01,  1.04436716e-02, -1.31491885e-01,  4.94298525e-02,  3.19288075e-01,  2.20599562e-01,  4.43756282e-01, -6.13712609e-01, -2.76160866e-01,  1.75397620e-01,  4.13432419e-02,  2.59597331e-01, -6.05465531e-01,  1.59745470e-01, -1.48650125e-01,  2.59166863e-02],
 [ 5.86087853e-02,  6.69332445e-02,  3.88454527e-01, -3.77699554e-01,  2.90885240e-01, -1.66024566e-01, -4.24340218e-02,  1.35424644e-01,  1.72337651e-01,  1.32482409e-01,  4.43350732e-01, -6.08222127e-01, -1.84277266e-01,  3.10147673e-01,  3.22734475e-01,  3.52234244e-01, -6.03451252e-01,  5.07717095e-02, -3.23164195e-01, -3.14369984e-02],
 [-1.17880730e-02,  2.00242594e-01,  3.93673748e-01, -1.29241765e-01,  4.69128728e-01, -1.76120073e-01, -1.18984543e-01,  6.40205592e-02,  2.29677722e-01,  3.67168397e-01,  2.92102754e-01, -6.05570018e-01, -1.92091525e-01,  2.82327265e-01,  4.07786399e-01,  2.30460823e-01, -5.70494950e-01,  5.44962175e-02, -3.26402605e-01, -9.05258283e-02],
 [ 4.73667197e-02,  7.45862648e-02,  1.58412829e-01, -1.90590963e-01,  2.97643393e-01, -4.63898443e-02, -2.73623038e-02,  3.40568721e-01,  3.89245898e-01,  2.68177181e-01,  1.81104451e-01, -5.42560279e-01, -4.77614701e-02,  6.07800409e-02,  1.56280831e-01,  3.80946577e-01, -4.78908986e-01,  1.45485858e-03, -2.96531886e-01, -4.31164727e-02],
 [ 1.66929111e-01,  1.53162200e-02,  1.88878134e-01, -6.10894300e-02,  5.13960898e-01,  5.78585304e-02,  1.18644066e-01,  3.32220018e-01,  2.63269305e-01,  1.39328077e-01,  2.55934596e-01, -6.16189957e-01, -3.82382512e-01,  2.76252795e-02,  8.92061144e-02,  3.70017409e-01, -7.14260817e-01, -9.87754539e-02, -1.72229961e-01, -2.46139228e-01],
 [ 2.75188953e-01,  1.98035851e-01,  1.48712039e-01, -2.39623830e-01,  3.02588940e-01, -8.50913674e-02,  1.00358173e-01,  1.75962389e-01,  1.28885269e-01,  1.12395689e-01,  9.71860513e-02, -1.35903969e-01, -4.04016227e-01,  1.61314875e-01,  2.35020041e-01,  3.15220594e-01, -4.17887777e-01, -1.02916017e-01, -2.51592100e-01, -2.97284067e-01],
 [ 1.90497160e-01,  1.26877651e-01,  1.17538601e-01, -1.22527391e-01,  1.98967084e-01, -2.01290399e-01,  7.80524760e-02,  2.56256223e-01,  2.27416441e-01,  1.04453668e-01,  2.18308404e-01, -1.69726253e-01, -2.54502088e-01, -5.42424023e-02,  6.08684383e-02,  3.25379133e-01, -3.02467108e-01, -2.07727507e-01,  9.06731095e-03, -3.27808946e-01],
 [ 8.31141099e-02,  1.02859236e-01,  8.72249454e-02, -7.22040609e-02,  1.73745245e-01,  1.01457676e-02,  1.33218572e-01,  1.22668788e-01,  2.07353547e-01,  2.87197493e-02,  1.62914749e-02, -1.39812395e-01, -2.12761953e-01, -7.74626583e-02,  5.63258007e-02,  1.83261126e-01, -2.94469148e-01, -4.25695144e-02,  8.50231126e-02, -2.54828602e-01],
 [ 6.30194321e-02,  1.04494371e-01,  1.42015547e-01,  2.55500730e-02,  3.16098705e-02, -1.38747051e-01,  1.40310973e-02,  2.15791106e-01,  6.48631006e-02, -9.86277163e-02, -1.56235784e-01, -1.59067333e-01, -2.33352661e-01, -8.46630484e-02,  1.65456906e-01,  3.69288474e-02, -2.37015471e-01, -1.02672599e-01,  5.60546666e-03, -9.64306667e-02],
 [ 4.20852602e-01,  2.37304017e-01,  3.93878430e-01,  8.83647054e-02,  4.83124442e-02, -1.60331845e-01, -7.72898272e-02,  5.35003878e-02,  1.72723085e-02, -1.38871014e-01, -1.44744650e-01, -1.37898996e-01, -4.05577987e-01, -8.58090445e-02,  1.42745122e-01,  2.51989849e-02, -2.90194869e-01, -1.00066066e-01,  1.72602013e-01, -3.11296105e-01],
 [ 6.63896620e-01,  3.61552387e-02,  3.20687026e-01,  1.95232421e-01,  4.31408919e-03,  1.60893407e-02, -1.07849151e-01, -1.04374118e-01,  1.48587888e-02,  7.69156143e-02, -9.00837258e-02, -1.91430539e-01, -2.56185055e-01, -2.41731271e-01,  8.75756517e-02,  1.82211399e-01, -3.35020483e-01, -4.50294688e-02,  9.24437195e-02, -3.31542224e-01],
 [ 4.59020764e-01,  9.51443017e-02,  6.87696040e-02,  2.22924531e-01, -1.83599144e-01, -2.81154662e-01, -3.86744618e-01,  3.44778374e-02, -3.84270623e-02,  6.55481080e-03, -2.99681157e-01, -2.79715300e-01, -1.36220783e-01, -1.88522607e-01,  2.67741203e-01,  1.31011233e-01, -1.25222400e-01, -4.01596203e-02, -4.38696295e-02, -3.69098306e-01],
 [ 4.54815537e-01,  1.28267691e-01,  3.35779250e-01,  3.42490554e-01,  2.62517277e-02, -3.90284136e-02, -3.40817928e-01, -1.34328991e-01, -1.88666403e-01, -5.60680479e-02, -2.36165881e-01, -3.50644797e-01, -1.84549853e-01,  1.27040625e-01,  3.79835702e-02,  1.44201398e-01, -6.39280528e-02,  1.64127499e-01,  1.96732447e-01, -3.08243275e-01],
 [ 2.60718524e-01,  1.51614085e-01,  3.31845880e-01,  2.93332100e-01, -1.02673665e-01,  2.59717703e-01, -2.11626291e-01, -2.14113846e-01, -3.36950392e-01,  1.59426536e-02, -3.56717408e-01, -2.17687622e-01, -1.42411873e-01,  3.87830645e-01, -7.10627586e-02, -6.07677586e-02, -7.27785155e-02,  1.12086326e-01,  2.28176534e-01, -2.27973998e-01],
 [ 2.87847638e-01,  3.26143265e-01,  3.72272372e-01,  3.17769021e-01, -3.60060558e-02,  6.66337609e-02, -9.84074548e-02, -1.43451512e-01, -3.38813931e-01,  3.95752536e-03, -3.12872678e-01, -2.09115148e-01, -2.17891037e-01,  3.95245016e-01, -1.71864256e-01, -1.34539410e-01, -3.51198494e-01, -3.86816978e-01,  2.56118268e-01, -4.73128743e-02],
 [ 3.01938891e-01,  1.58223569e-01,  3.26118946e-01,  3.09156179e-01, -1.90635473e-01, -1.13746479e-01, -8.53621494e-03,  2.27201413e-02, -4.67819683e-02, -8.47807853e-04, -1.80475548e-01, -2.28852987e-01,  9.05579999e-02,  2.10274145e-01, -4.66609839e-03,  6.74754903e-02, -1.77952230e-01, -1.44115061e-01, -1.80130050e-01,  6.93587959e-02],
 [ 6.70704395e-02, -1.27630249e-01, -6.21344671e-02,  1.74771115e-01, -2.62510508e-01,  6.38492182e-02, -1.36575878e-01,  2.68314123e-01, -3.28310840e-02, -1.73108637e-01,  3.14547680e-02,  4.99294475e-02, -6.44723028e-02,  1.71081632e-01,  2.14990258e-01,  5.12587391e-02,  1.63409099e-01, -4.96597737e-02, -3.52446675e-01,  2.11105883e-01],
 [ 1.20604746e-01,  7.98253417e-02,  9.60090980e-02,  2.24471033e-01, -1.56002855e-02, -1.30762696e-01, -2.53112525e-01, -2.45097000e-03,  9.65307374e-03,  9.35388505e-02, -7.02638105e-02,  4.77390811e-02,  4.09615487e-02,  9.48079303e-02,  2.38791347e-01,  1.05946854e-01,  1.67795733e-01,  4.31707799e-02, -2.34626025e-01,  2.70563275e-01],
 [ 3.86376828e-02,  4.67527807e-02,  2.60558352e-02, -8.33469853e-02, -2.49652639e-02,  1.43164396e-03,  1.66499689e-02, -3.54908444e-02,  8.46678168e-02,  4.69434410e-02, -4.69252467e-03,  4.37731445e-02,  4.38934267e-02,  2.50196159e-02, -6.11069277e-02, -7.23768994e-02,  4.09736484e-02, -2.27513164e-02, -8.09067041e-02, -6.33920208e-02],
 [-4.90269549e-02,  8.15919787e-03, -6.68864772e-02, -7.26723745e-02,  4.09197211e-02,  5.71715832e-02, -6.34092093e-03, -7.38626495e-02,  7.17045963e-02, -1.57939270e-02, -6.79868758e-02, -1.31114572e-02, -2.16662064e-02, -2.60583684e-02,  9.67783481e-03, -4.29431982e-02,  2.46021971e-02, -4.95558232e-02, -1.96998566e-02,  2.71579176e-02],
 [ 4.49354351e-02,  6.54218495e-02, -3.85219231e-02, -2.05942821e-02, -5.17814979e-02,  5.77474833e-02, -1.01012208e-01,  9.70373973e-02,  2.67059989e-02, -4.77449186e-02, -1.73522551e-02,  7.18344226e-02,  1.26847737e-02, -7.16663823e-02,  1.47115499e-01,  5.78169227e-02,  4.39690724e-02, -2.46191248e-02, -6.89397305e-02, -1.22761615e-01],
 [-1.10881604e-01, -7.30037466e-02, -1.19650394e-01, -1.68617085e-01, -1.16679117e-01, -1.68422852e-02, -1.61223233e-01,  2.84722447e-01,  1.46504968e-01,  3.51245366e-02,  9.33583975e-02,  3.19540679e-01,  2.00075164e-01, -1.27200603e-01, -7.88576528e-02,  1.43134251e-01, -2.31841624e-01, -9.34880376e-02,  2.25487575e-01, -6.35324717e-02],
 [ 2.48971865e-01,  9.05362293e-02,  1.14645213e-01,  6.93439543e-02,  8.10175613e-02, -1.75631061e-01, -3.44570905e-01,  3.54872286e-01,  2.50586808e-01,  2.27005228e-01,  2.71137804e-01, -3.22009116e-01,  1.09773315e-01, -3.57467651e-01, -8.62079412e-02,  1.73709244e-01, -6.25475198e-02, -3.40992957e-01, -8.38043019e-02, -8.33925232e-02],
 [ 7.56411403e-02,  1.32794514e-01,  6.20689653e-02, -2.45201856e-01,  5.80609702e-02,  8.90153125e-02, -1.09875746e-01, -2.22117558e-01,  9.57712829e-02,  2.83042043e-01,  2.89009601e-01, -7.89334706e-04,  5.82069159e-02, -6.64476529e-02,  1.22887231e-01, -1.14025734e-01, -1.16230153e-01,  1.35566797e-02,  1.88464269e-01, -7.37265199e-02],
 [-6.59179837e-02, -5.71761467e-02, -7.22455140e-03, -1.97974756e-01,  2.46330742e-02, -1.27683893e-01, -1.77097037e-01, -4.44319248e-02,  2.13520005e-01,  5.65727949e-01, -3.70780788e-02, -2.31012389e-01, -5.65779954e-02,  2.50052493e-02,  3.27074006e-02, -7.06618652e-02, -3.68906736e-01, -2.49864366e-02,  1.85407609e-01, -2.01507032e-01],
 [ 1.38403088e-01, -2.52044320e-01, -2.11982563e-01, -2.93030828e-01,  2.19328329e-01, -1.74774930e-01,  3.86539362e-02,  2.21752543e-02,  3.38024139e-01,  3.99160326e-01, -1.70144439e-01, -3.50567937e-01,  1.39629748e-02,  1.21845864e-01, -3.30421813e-02,  2.57774711e-01, -3.78389239e-01,  2.21522197e-01, -4.96454351e-02,  1.12276956e-01],
 [-2.03911573e-01,  1.70003921e-01, -1.23612009e-01, -3.11722368e-01,  2.92245299e-01, -1.26056537e-01, -1.23136252e-01,  5.04276492e-02,  8.09844118e-03,  2.58247972e-01,  1.09143592e-01, -3.70425105e-01, -3.03372182e-02,  1.48614749e-01,  3.44737381e-01,  3.77391905e-01, -4.17945683e-01,  9.20297280e-02,  3.93973850e-02, -7.25767463e-02],
 [-3.10634315e-01,  4.53601703e-02,  6.74043447e-02, -6.26215339e-01,  4.29760218e-01, -1.37430996e-01, -1.98033676e-01,  1.47629902e-01,  1.05077967e-01,  1.83263645e-01,  9.64302793e-02, -3.79351050e-01,  1.90716591e-02, -2.15733796e-02,  3.02444279e-01,  1.12218805e-01, -5.72970927e-01,  1.65665209e-01,  2.56904185e-01, -1.55604482e-01],
 [-2.61666417e-01,  4.60476540e-02,  1.46078289e-01, -6.45777345e-01,  3.53331447e-01, -1.09758012e-01, -1.15135722e-01,  2.49145418e-01,  2.36950777e-02,  1.26703784e-01,  2.56773949e-01, -5.25689125e-01, -2.17904925e-01,  6.98153228e-02,  3.04266274e-01,  3.15927416e-01, -6.31704330e-01,  2.79083014e-01,  2.46024802e-02,  5.56516908e-02],
 [ 1.22984601e-02,  1.34255262e-02,  1.36210352e-01, -4.94124323e-01,  3.65337729e-01, -1.72691107e-01, -4.03684042e-02,  3.14757049e-01,  1.14824250e-01,  1.43114269e-01,  3.29381198e-01, -2.61418760e-01,  8.75051133e-04,  2.22927690e-01,  4.58324283e-01,  3.39284688e-01, -6.19524539e-01,  3.87016743e-01, -1.63030878e-01,  2.71763243e-02],
 [ 3.43938149e-03,  1.06213495e-01,  9.88939106e-02, -2.66805798e-01,  3.59842002e-01,  4.72764708e-02, -1.44433498e-01,  2.04737023e-01,  1.00930490e-01, -6.42908365e-02,  3.51261884e-01, -1.24694049e-01,  5.03946170e-02,  1.94218129e-01,  2.38038644e-01,  4.03794199e-01, -3.41280848e-01,  3.60555589e-01, -1.50412068e-01,  9.38558951e-02],
 [-1.88339591e-01,  1.31827176e-01, -9.17786881e-02, -3.74534875e-01,  2.33979762e-01,  2.06030011e-02, -3.04455147e-03,  2.88416088e-01,  4.63284366e-02, -3.85347148e-03,  3.69809747e-01,  3.88606936e-02,  7.51985528e-04,  2.79440135e-01,  2.59744942e-01,  3.63384336e-01, -4.54005480e-01,  1.57095194e-01, -1.00420527e-02,  7.88697451e-02],
 [-8.79580304e-02,  9.53496471e-02, -1.11512832e-01, -2.41513431e-01,  2.51091331e-01, -8.55087191e-02,  7.23109692e-02,  2.24203005e-01,  3.71762775e-02,  1.22088462e-01,  1.82467028e-01,  1.01996616e-01, -2.12473255e-02,  8.09619669e-03,  1.58671066e-01,  3.04183483e-01, -3.64471346e-01,  1.25056505e-01,  1.19115934e-01, -4.95937169e-02],
 [ 8.68129656e-02,  1.14594631e-01, -6.38515502e-02, -1.04567640e-01,  3.21038425e-01,  2.82471292e-02,  8.72197226e-02,  1.42496824e-01,  9.71418694e-02,  1.40373074e-02,  2.83800215e-01, -1.20884538e-01, -9.52534005e-03,  9.68942642e-02,  1.75376281e-01,  3.54422003e-01, -2.24300086e-01,  7.36781582e-02,  1.58763528e-01, -1.82000548e-01],
 [ 8.95425826e-02,  6.96277842e-02,  1.09754793e-01, -5.23261204e-02,  1.05174661e-01,  9.96077713e-03,  1.14327945e-01,  2.93719620e-01,  8.68070871e-02, -4.68999706e-02,  6.97302595e-02, -2.22111288e-02,  5.95478043e-02,  7.11098313e-03,  2.50917107e-01,  3.35046411e-01, -2.22519219e-01, -9.32247564e-02,  1.24573009e-03, -1.52589768e-01],
 [ 1.91454850e-02,  6.96256235e-02,  1.93709612e-01, -8.75680223e-02,  1.08840048e-01,  3.65429558e-02,  8.07198882e-02,  1.22450389e-01,  1.85696349e-01, -1.27269223e-01,  1.24213122e-01,  7.45754167e-02, -3.95043232e-02,  3.41397338e-02,  3.82312536e-01,  3.54931921e-01, -3.74371052e-01, -9.10510346e-02,  1.23079553e-01, -2.89561093e-01],
 [ 6.50467798e-02,  9.84645411e-02,  2.21490994e-01, -9.36626196e-02, -8.20747204e-03,  1.06797166e-01,  1.10268570e-01,  7.20691159e-02, -1.57301370e-02, -8.84028897e-02,  5.06812669e-02,  9.39577222e-02, -3.86262946e-02,  4.70712706e-02,  3.71688813e-01,  1.62117273e-01, -2.05288738e-01, -1.12606838e-01, -4.65698447e-03, -6.11410253e-02],
 [ 1.74929559e-01,  3.40377502e-02,  2.28149220e-01,  5.63911274e-02,  3.97867989e-03,  5.29374667e-02,  1.17166184e-01,  4.82375734e-02,  4.13472280e-02, -1.25693351e-01, -8.24336186e-02,  1.89543143e-03,  1.65632442e-02,  6.56703860e-02,  1.71998158e-01,  3.01444352e-01, -2.65531629e-01,  5.49295638e-03,  4.48888652e-02, -7.64905140e-02],
 [ 9.12623703e-02,  7.14195613e-03,  2.40763307e-01, -4.81767133e-02, -6.52478114e-02,  4.22011688e-02,  1.71818569e-01,  8.25829711e-03, -7.78173096e-03, -8.02775845e-03, -1.20356664e-01,  3.35812457e-02, -7.66045302e-02,  9.50322449e-02,  2.22098753e-01,  1.20583460e-01, -2.96083719e-01,  2.24223942e-03,  1.37316391e-01, -1.15658663e-01],
 [ 6.67268261e-02,  1.15744293e-01,  6.13838620e-02, -1.52312249e-01, -6.73650131e-02,  1.25985801e-01,  1.50866464e-01, -1.06868111e-01, -3.64706367e-02,  2.48999950e-02, -2.37730429e-01,  7.40135387e-02, -2.04567805e-01, -2.79012229e-02,  1.70758694e-01,  5.48291244e-02, -3.07491750e-01,  4.78643402e-02,  2.88464665e-01, -1.95221886e-01],
 [ 2.65290767e-01,  7.83963874e-02,  1.53308466e-01,  1.12739429e-01, -3.01351815e-01,  1.04409881e-01, -8.97705853e-02, -1.94002971e-01, -2.41577759e-01,  4.23031375e-02, -7.73193687e-02, -1.16625637e-01, -2.48911887e-01, -8.13366380e-04,  2.20446631e-01, -4.07210402e-02, -1.36031196e-01, -1.03002712e-01,  2.34084919e-01, -1.71576917e-01],
 [ 2.93443948e-01,  1.21307410e-01,  2.02175617e-01,  7.23430216e-02, -4.03911322e-01,  1.09953862e-02, -3.27954181e-02, -2.52423733e-01, -3.01157683e-01, -4.03302982e-02, -2.62960494e-01,  7.69069120e-02, -3.30026537e-01, -3.70695107e-02,  4.03918922e-01,  4.42967936e-03, -1.06527366e-01, -1.02428719e-01,  2.32083574e-01, -4.83168662e-02],
 [ 1.60544097e-01,  8.79829451e-02,  1.42059162e-01,  2.76871651e-01, -4.39180136e-01,  1.97222769e-01, -1.43857121e-01, -2.70796984e-01, -4.34287578e-01, -8.07861164e-02, -5.86235344e-01, -1.73937783e-01, -4.20377612e-01, -6.19509630e-02,  1.41145155e-01,  1.08821914e-01, -6.42332435e-02, -1.29882336e-01,  2.02708855e-01, -7.46850222e-02],
 [ 7.71343186e-02,  3.45663846e-01,  1.96599990e-01,  2.80747622e-01, -5.04868746e-01,  4.82224226e-02, -4.41909075e-01, -1.30963564e-01, -5.30101836e-01, -3.49250138e-01, -4.71703082e-01, -1.34500377e-02, -1.31212145e-01,  3.40810567e-01,  5.29277444e-01,  2.82580763e-01,  6.18507229e-02,  2.30968520e-02, -1.10362412e-03, -1.45477757e-01],
 [ 1.64884388e-01,  3.49609941e-01,  1.13003299e-01, -4.44529951e-02, -9.93574262e-02,  1.00319184e-01, -4.14011002e-01,  1.10548317e-01, -4.05140549e-01, -3.15740377e-01, -3.04631233e-01,  1.52855486e-01, -6.39798045e-02,  5.59682071e-01,  2.34573171e-01,  1.35912836e-01, -1.21190630e-01, -9.43417996e-02,  5.04277050e-02, -8.89478028e-02],
 [ 2.06833765e-01,  3.76457363e-01,  3.74097198e-01, -9.27546769e-02,  1.78919196e-01,  2.87823528e-01, -3.00070077e-01,  2.30110019e-01, -1.79173067e-01, -2.26695254e-01,  8.71141627e-03,  4.65518348e-02, -4.03637737e-02,  5.30686855e-01, -8.43773186e-02,  1.23808764e-01, -1.87621519e-01, -3.14959079e-01,  1.19913876e-01,  2.14480221e-01],
 [-4.45425995e-02,  2.56601423e-01,  2.63429254e-01,  1.93319976e-01,  2.25365475e-01, -1.38066515e-01,  1.00238979e-01, -8.95189270e-02, -1.72255486e-01,  1.33311629e-01, -7.76458234e-02,  6.16776496e-02, -5.84882572e-02,  2.17038855e-01,  1.82351783e-01, -1.04879461e-01, -3.89516801e-01, -2.13893905e-01,  1.23048313e-01, -2.26317486e-03],
 [-4.38658893e-02, -1.21131763e-02,  4.47117537e-02, -1.27172470e-02, -6.58163205e-02, -7.22581446e-02,  5.94159961e-02, -4.91502210e-02, -2.49225907e-02, -2.42664963e-02,  8.36478323e-02, -6.10831231e-02, -7.30265006e-02,  6.04052842e-02,  3.67933512e-02, -3.09989601e-03, -2.19833255e-02,  3.45485881e-02, -1.60414129e-02,  8.58918279e-02],
 [ 6.77412450e-02, -2.18072683e-02, -2.47285515e-02,  2.35915184e-03,  4.74367440e-02, -3.78672369e-02,  7.66044557e-02,  5.01535535e-02, -7.19394386e-02, -3.02858688e-02,  7.96192586e-02, -5.19902371e-02,  7.50992447e-02,  2.27367729e-02, -1.98491663e-03, -8.35991651e-02,  2.32936740e-02, -8.28730017e-02, -7.44911805e-02, -7.31022805e-02],
 [ 2.27510765e-01, -1.83310404e-01,  3.33791226e-02, -2.96675228e-02,  4.48060483e-01,  1.86667917e-03, -7.06500039e-02,  9.89374369e-02,  2.75978833e-01,  3.57922971e-01, -1.08046129e-01,  1.29894568e-02,  9.35645252e-02, -3.23287725e-01, -1.15363337e-01,  6.53456897e-02, -4.90005463e-01, -1.01495370e-01,  2.13807076e-01, -2.61552304e-01],
 [-1.31753802e-01, -1.11358330e-01, -1.25708923e-01, -7.57759884e-02, -3.34465563e-01, -3.23869586e-01, -1.58359259e-01,  2.55659223e-01,  2.31634200e-01,  2.29332045e-01, -2.70227402e-01, -1.83825329e-01,  2.76058555e-01, -1.98001545e-02,  2.90541291e-01,  3.76706034e-01, -1.68777615e-01,  5.48569933e-02,  7.63498917e-02, -1.86460853e-01],
 [-2.04242229e-01,  6.61948919e-02, -2.65244961e-01, -1.56541452e-01, -4.28892337e-02, -1.32078037e-01, -2.08296835e-01, -6.65110946e-02,  1.57118425e-01,  5.32950699e-01, -7.27081895e-02, -2.47461036e-01,  4.53428216e-02,  6.71224669e-02,  2.91353673e-01,  1.55389473e-01, -4.24260616e-01,  1.31122962e-01,  1.59901097e-01, -1.79965451e-01],
 [ 6.65500239e-02, -1.27121210e-01, -2.79132843e-01, -7.61461630e-02, -3.36528838e-01, -1.37010828e-01, -1.36020511e-01,  9.92514566e-02,  2.70529002e-01,  4.68485475e-01, -1.16464108e-01, -2.14616600e-02,  7.03104958e-02, -1.99408010e-01, -1.69260040e-01, -7.57002980e-02, -2.35146731e-01,  5.28200194e-02,  4.42653209e-01, -1.73286144e-02],
 [ 5.98314069e-02, -2.41626333e-02, -3.45021397e-01, -3.17103863e-01, -2.75811646e-02, -1.78275421e-01, -1.75797924e-01,  7.55718425e-02,  1.19320583e-03,  4.53813136e-01,  2.39739101e-02, -2.03074247e-01,  6.37576804e-02, -2.62884855e-01, -5.89173958e-02,  8.77889395e-02, -2.34909028e-01,  3.01374108e-01,  2.88665324e-01,  8.10495019e-02],
 [-1.02385409e-01,  9.20499414e-02, -7.73926824e-02, -2.72467315e-01,  5.18574379e-02, -1.92156881e-01, -1.62326112e-01,  5.48022203e-02,  9.86254867e-03,  1.65941745e-01, -2.77489256e-02, -3.64397913e-01, -1.51626614e-03,  8.33691284e-02,  4.94352207e-02,  1.04053542e-01, -4.29694712e-01,  1.50430173e-01,  2.45132953e-01,  7.49224573e-02],
 [-1.38230491e-02,  2.17722014e-01,  1.15189098e-01, -3.92471790e-01, -9.05916467e-03, -2.15627313e-01,  1.60781741e-02, -1.46702960e-01, -6.45777397e-03,  1.25193283e-01,  1.89695150e-01, -2.39962935e-01, -4.41792682e-02,  3.40737663e-02,  3.08475532e-02,  1.39358640e-01, -3.20962667e-01,  4.37855795e-02,  1.83437541e-01,  3.83225560e-01],
 [-1.32828772e-01,  7.77988061e-02,  3.10085295e-03, -4.87963557e-01, -7.60067925e-02, -9.35524553e-02, -1.27309218e-01, -5.89340217e-02, -1.04977243e-01,  1.05505966e-01,  1.28160506e-01,  3.13310213e-02,  2.80779190e-02,  1.08714856e-01, -5.05988952e-03,  2.30247065e-01, -2.22098395e-01,  2.64901578e-01,  1.33575633e-01,  2.54011154e-01],
 [ 1.18533298e-01,  6.25680387e-02, -9.58956033e-02, -7.79321492e-02,  1.28959939e-02, -1.01379931e-01,  3.07455286e-02,  2.12203152e-02, -6.87547103e-02,  2.30687261e-02,  1.99060917e-01, -1.41030386e-01, -1.08549083e-02,  3.84446532e-02,  6.78692237e-02,  2.51818448e-01, -1.69106200e-01,  9.49974954e-02, -5.28593846e-02,  1.65053189e-01],
 [-3.29805091e-02,  9.80609134e-02, -1.47781149e-01, -2.05809567e-02,  3.91524732e-02,  4.12023850e-02,  8.78665000e-02,  1.19507581e-03, -2.24762648e-01, -1.69465378e-01,  1.75439522e-01, -1.16713583e-01,  1.09805509e-01,  2.01441839e-01, -1.76279619e-03,  3.20429921e-01, -2.70469010e-01, -1.04038622e-02, -2.81168297e-02,  2.24707052e-01],
 [-3.74123976e-02,  1.31076947e-01, -5.84402494e-02, -1.08503364e-01,  8.77389684e-02,  8.47872626e-03,  3.25067602e-02,  1.54147204e-03, -1.48549033e-02, -3.72147039e-02,  2.46830180e-01, -4.75555398e-02,  9.43718255e-02,  2.37604171e-01, -5.79349510e-03,  2.85458684e-01, -3.13123524e-01,  2.46077497e-02,  1.76717028e-01,  1.34762958e-01],
 [ 8.87358561e-02,  1.43141732e-01,  3.52892815e-03, -2.83580199e-02,  1.10098831e-01,  3.45718302e-02,  1.92499459e-01,  1.89299986e-01, -5.17078377e-02, -1.44980803e-01,  7.02439696e-02, -2.05830373e-02,  6.84157684e-02, -3.99225317e-02,  2.99793500e-02,  2.83571810e-01, -2.35012010e-01, -2.19796170e-02,  6.22677729e-02,  2.81475633e-01],
 [ 1.05508659e-02,  1.14311770e-01,  9.58441868e-02, -1.06595784e-01,  1.09988205e-01,  3.14642419e-03,  4.83035818e-02,  9.99482051e-02, -5.68818972e-02, -6.12960905e-02,  1.07595831e-01, -9.23014581e-02, -7.00957552e-02,  6.71987012e-02,  2.07244694e-01,  1.90202206e-01, -2.00578570e-01,  1.03038855e-01,  1.17439926e-01,  1.14688337e-01],
 [ 7.38565694e-04,  2.06836481e-02, -8.81131068e-02, -3.23248655e-02,  1.21222600e-01, -8.85542016e-03,  8.58364478e-02,  9.84987542e-02, -1.29451640e-02, -4.10151854e-02, -3.04829385e-02,  1.14761941e-01, -9.56098884e-02, -3.72872502e-02,  1.34578899e-01,  2.26518825e-01, -2.40063950e-01,  1.51468357e-02,  1.53310567e-01,  3.86016630e-02],
 [ 8.45559593e-03,  1.10084727e-01,  9.17630363e-03, -1.22189254e-01, -5.74393012e-02,  7.11408257e-03,  2.02626567e-02,  1.93248615e-02,  1.31037757e-01,  1.60043761e-02, -3.94234434e-02,  1.03310302e-01, -1.64155215e-01,  1.67265490e-01,  1.79060310e-01,  2.82743633e-01, -4.00369436e-01, -1.38019500e-02,  8.51940662e-02,  5.42230979e-02],
 [ 1.29971981e-01,  2.08397761e-01,  1.12898082e-01,  8.40057135e-02, -3.37167084e-02, -3.74847203e-02,  2.33044952e-01, -5.11058383e-02, -7.08488151e-02, -1.81968763e-01, -7.71603361e-02,  3.55420709e-02, -2.49826089e-01,  2.85983495e-02,  3.06264997e-01,  2.75089175e-01, -3.78742695e-01, -3.55884526e-03,  4.78059053e-03,  1.51616696e-05],
 [ 2.11219698e-01,  1.61615312e-02,  9.97225866e-02, -4.25734855e-02, -1.14606202e-01,  4.53390628e-02,  2.48631775e-01, -3.56853530e-02, -2.68463828e-02,  2.96380781e-02, -9.34452713e-02,  9.11044423e-03, -1.47173852e-01, -4.79853228e-02,  2.94813633e-01,  2.77308553e-01, -4.10037696e-01,  7.80530879e-03,  5.84949303e-05,  3.15484069e-02],
 [ 1.14152268e-01,  7.98167065e-02,  1.62592232e-01,  6.05541207e-02, -8.55095163e-02, -4.86735720e-03,  1.54735908e-01,  9.26581852e-04, -2.76360083e-02, -6.44656597e-03, -1.43094316e-01,  9.03174132e-02, -2.10917413e-01,  1.10973649e-01,  3.94481003e-01,  1.36528865e-01, -5.17123342e-01, -8.15770626e-02,  7.60230422e-02, -4.82759289e-02],
 [ 2.90728688e-01,  1.03284623e-02,  1.73097372e-01,  9.57334638e-02, -8.20413828e-02,  2.00019434e-01,  4.40134071e-02,  1.34668678e-01, -1.09091483e-01, -1.02857657e-01, -2.38481745e-01, -2.54182005e-03, -2.31410071e-01,  8.63489211e-02,  3.68820995e-01,  1.26622528e-01, -3.72213721e-01, -2.91997343e-02, -7.49418791e-03, -1.28683895e-01],
 [ 8.41814652e-02, -1.27175316e-01,  1.32390484e-01,  3.51361819e-02, -2.23688632e-01,  2.34703287e-01,  2.92092443e-01,  5.63849919e-02, -1.10027315e-02,  2.57111285e-02,  2.30556522e-02, -3.88208777e-02, -3.08581322e-01,  1.90109275e-02,  3.22198033e-01, -6.16418850e-03, -3.24801981e-01, -1.62665129e-01,  7.06178844e-02, -5.96340634e-02],
 [ 1.33203715e-01, -2.25047588e-01,  5.82925715e-02,  9.54111014e-03, -3.49378198e-01,  8.23081285e-02,  1.28577203e-01,  1.21998399e-01,  1.11156747e-01, -1.95263661e-02, -2.61192750e-02, -9.72243622e-02, -4.48160946e-01, -1.24016352e-01,  4.13541526e-01,  5.65286428e-02, -1.10547759e-01, -1.32467359e-01,  4.75661531e-02, -2.64549367e-02],
 [ 2.99244404e-01, -3.54433507e-01,  7.90819004e-02,  1.15689553e-01, -3.94029081e-01,  7.33083412e-02, -4.01426814e-02, -3.01457912e-01, -2.80046985e-02,  3.06486517e-01, -2.80431360e-01,  1.38129950e-01, -3.45265538e-01, -7.46803954e-02,  2.34524980e-01, -1.36314109e-02, -1.72869578e-01,  6.96966723e-02,  1.33862227e-01, -1.82905793e-01],
 [ 1.48880437e-01, -1.06542327e-01,  1.46025822e-01,  1.73233494e-01, -3.21547806e-01,  1.63977101e-01, -1.98406607e-01, -7.26072788e-02, -9.05169919e-02,  1.23746805e-01, -4.51836795e-01,  6.57443032e-02, -2.22595572e-01, -6.79406598e-02,  1.19396150e-01,  1.87079739e-02, -9.19041969e-03, -5.03917933e-02,  2.00031951e-01, -2.31447622e-01],
 [ 2.52107739e-01,  4.01674211e-01,  4.10907149e-01,  4.33492549e-02,  6.58468856e-03,  2.40129396e-01, -3.22816312e-01, -1.81196053e-02, -3.41027826e-01, -2.81861603e-01, -1.25931516e-01,  1.95958421e-01, -1.42039165e-01,  7.44547784e-01,  3.21552366e-01,  4.99564260e-01,  2.95289345e-02,  1.97100211e-02,  1.55328140e-01, -7.07976222e-02],
 [ 2.35920861e-01, -7.43478313e-02,  4.89038706e-01,  3.52074265e-01,  4.73430827e-02, -1.37973726e-01, -3.42608184e-01,  6.24575233e-03, -2.25664735e-01,  4.71119210e-02,  4.90250327e-02,  1.49137182e-02,  1.61791846e-01,  5.27761459e-01,  1.54652357e-01,  2.24039584e-01, -3.69134992e-02, -2.46064112e-01, -7.70959444e-03, -3.09479028e-01],
 [-2.90226061e-02, -5.84176555e-02,  2.44266629e-01,  1.93452567e-01,  7.68656954e-02, -2.07000062e-01, -1.62639439e-01, -2.18503386e-01, -2.83880115e-01,  1.55127183e-01, -4.41125073e-02,  1.05318457e-01, -3.86805423e-02,  1.37541816e-01,  1.34881601e-01, -7.81100541e-02, -1.08824171e-01, -2.80468792e-01,  1.30906284e-01, -2.03656331e-01],
 [ 8.31818432e-02,  6.76374733e-02, -5.45863509e-02,  8.72161984e-03,  3.82770598e-03, -3.42620946e-02, -5.46316206e-02,  6.26579523e-02, -3.37274149e-02, -5.38776815e-03,  4.21370864e-02, -1.84314176e-02, -6.98548704e-02,  7.93293267e-02, -1.64844990e-02, -6.11177646e-02, -5.78496382e-02,  6.75638765e-03,  4.53858227e-02,  6.40951097e-04],
 [-5.41300848e-02,  5.17252646e-02,  2.34281123e-01, -2.04024106e-01, -9.40624624e-02, -2.06371710e-01, -2.76853936e-03,  7.63365552e-02,  2.52693683e-01,  2.74330884e-01,  5.86392283e-02, -1.50276721e-01,  1.31533131e-01,  3.48243788e-02,  2.10393116e-01,  1.14687182e-01, -1.97435737e-01, -6.83602840e-02, -1.46215469e-01, -1.51578858e-01],
 [ 3.66280556e-01,  1.60273686e-01,  2.06377223e-01,  1.05195627e-01, -2.73788780e-01, -1.14717603e-01, -6.15636595e-02, -8.71886984e-02, -4.26756628e-02,  3.23625088e-01,  2.95815736e-01, -1.50262425e-02,  6.48971647e-02,  1.14845216e-01, -3.02995324e-01,  1.14462048e-01,  3.10998172e-01, -1.62398532e-01, -4.21225056e-02,  2.31203705e-01],
 [ 4.72272262e-02, -5.17283343e-02, -2.32499048e-01, -2.01176181e-01, -4.88442481e-02, -2.69581228e-01, -1.62151396e-01,  1.71758339e-01,  4.50568140e-01,  3.45307052e-01, -5.64589463e-02,  2.83414274e-01,  1.68085948e-01, -8.80129337e-02, -2.12137282e-01,  1.45483032e-01,  1.33853257e-01, -2.60035753e-01,  1.23775207e-01,  1.80060133e-01],
 [-1.91093832e-01,  1.55937681e-02, -3.51293445e-01, -1.80911794e-01, -9.49407518e-02, -1.59358099e-01, -1.16358578e-01, -5.95031418e-02,  1.89721718e-01,  3.74785542e-01,  1.74284548e-01, -1.50810242e-01,  6.44116700e-02, -1.29178949e-02, -7.23688230e-02,  1.93334401e-01,  7.22296536e-02,  1.63372800e-01,  1.00109480e-01,  1.46627828e-01],
 [-7.32540637e-02,  9.27615911e-02, -3.69247109e-01, -1.16315544e-01, -2.70573229e-01, -2.86336869e-01, -2.84877688e-01, -1.31555036e-01, -5.52456677e-02,  4.22627032e-01,  1.77413121e-01, -2.96168085e-02,  1.01742253e-01, -5.97139895e-02, -2.98294872e-02,  1.17897227e-01,  2.60993421e-01,  9.20133591e-02,  2.37975314e-01,  1.67252958e-01],
 [ 1.36804447e-01,  5.62681071e-02, -3.92629653e-01, -1.90427884e-01, -1.78891733e-01, -4.67409134e-01, -2.46221907e-02, -1.19192852e-02,  2.74681486e-02,  2.23902732e-01, -3.62550355e-02, -9.00528207e-02,  1.18550211e-02, -5.44837024e-03, -5.44959903e-02,  1.61579445e-01, -8.46728459e-02, -3.79845276e-02,  2.18654126e-01,  2.85804778e-01],
 [ 4.36661430e-02, -3.36254798e-02,  1.13467455e-01, -2.64730662e-01, -1.43883020e-01, -2.17027500e-01,  1.37461364e-01, -4.44052033e-02,  3.55211459e-02,  1.21235549e-01,  1.32117361e-01, -8.30246583e-02,  4.35039476e-02,  1.69869676e-01, -8.24440867e-02,  2.11571455e-01, -5.03695384e-02, -1.20384924e-01,  1.58027977e-01,  3.42585206e-01],
 [ 4.83561382e-02,  5.22913858e-02,  4.31420840e-02, -3.48527580e-01, -2.95334846e-01, -9.15024206e-02,  1.64750051e-02, -5.39978361e-03, -2.73539033e-02, -1.23358846e-01,  1.07330076e-01,  8.47051963e-02,  5.15359864e-02,  6.36240467e-02, -8.52294415e-02,  1.88703492e-01,  2.48983223e-02, -1.20604686e-01,  1.32775635e-01,  2.77913064e-01],
 [ 1.09323196e-01,  4.80437418e-03, -4.72149737e-02, -5.52339077e-01, -9.22961757e-02, -1.52794853e-01,  1.09236874e-01, -1.72564369e-02,  3.17550190e-02, -4.97962609e-02,  1.41503811e-01,  4.31149267e-02,  8.01774785e-02,  2.91115046e-01, -7.47661963e-02,  2.34819159e-01, -1.48442671e-01, -6.29576445e-02,  9.54686180e-02,  1.64697051e-01],
 [ 7.03111812e-02,  2.94306614e-02, -9.86323059e-02, -4.90352601e-01, -8.89190286e-02, -1.29097179e-01,  1.57287553e-01,  1.59644619e-01,  1.16587915e-01, -1.59104094e-01,  4.11730893e-02, -1.04145929e-01,  1.10301353e-01,  1.44137800e-01, -1.24173045e-01,  2.00488225e-01, -1.06347665e-01, -1.96045682e-01, -1.78298000e-02,  2.95927733e-01],
 [ 1.08178005e-01,  4.52956408e-02, -3.62173878e-02, -1.84468359e-01, -8.08850974e-02,  3.27315181e-02,  1.00957818e-01,  2.17868686e-01, -3.29145342e-02, -1.30322039e-01,  1.80572376e-01, -3.10821570e-02,  1.86704516e-01, -3.12517509e-02, -2.14061856e-01,  9.54874530e-02, -1.95735082e-01, -6.85944930e-02,  1.03523424e-02,  2.77783990e-01],
 [ 8.81429091e-02,  1.33540407e-01,  2.16844663e-01, -7.21897036e-02,  7.07428008e-02, -2.30489336e-02, -8.67877062e-03,  4.61537670e-03, -7.43944049e-02, -1.77274853e-01,  1.77399740e-01, -4.55348492e-02,  2.02145591e-01,  5.38789146e-02, -1.42407268e-01,  9.11613256e-02, -2.50662595e-01, -6.82615116e-02,  1.47534549e-01,  1.75568104e-01],
 [ 1.53102487e-01,  1.67339176e-01, -5.71600199e-02,  5.50628304e-02,  1.96857795e-01, -1.00923209e-02,  1.36199653e-01,  1.63016915e-01, -8.37810040e-02, -2.44565725e-01,  8.81016701e-02,  1.49678020e-02,  2.96096236e-01, -1.13684677e-01,  4.71415892e-02,  2.30627820e-01, -1.49704695e-01, -8.69706124e-02,  5.93743175e-02,  2.03607917e-01],
 [ 1.90240741e-01,  6.82186931e-02,  2.41042301e-02,  1.40475631e-01,  2.18178153e-01,  2.19519474e-02, -3.46717574e-02,  4.01504943e-03,  4.77105789e-02, -1.87003657e-01,  4.40693609e-02,  5.13497889e-02,  2.71158338e-01, -2.36186441e-02, -3.78117524e-02,  1.08497076e-01, -1.84994146e-01, -1.82496771e-01,  1.68728475e-02,  2.51818329e-01],
 [ 2.63260722e-01,  1.61596105e-01, -1.10874832e-01,  7.77016655e-02,  2.35708088e-01,  1.17620137e-02, -1.16944626e-01, -6.84226572e-04,  1.04606338e-02, -1.35465473e-01, -1.68558091e-01,  1.25807583e-01,  8.33496153e-02,  9.81005058e-02, -4.37140428e-02,  1.77642450e-01, -2.01785818e-01, -9.09628570e-02,  3.37877385e-02,  1.57381088e-01],
 [ 2.88752258e-01,  2.16712967e-01, -2.40598425e-01,  1.53423637e-01,  2.38833085e-01,  2.63227411e-02, -9.98079404e-03, -1.88401062e-02,  6.20316677e-02, -2.34448940e-01, -5.53616174e-02,  2.08012745e-01,  1.28279775e-01, -2.97068842e-02,  5.00219911e-02,  2.09645152e-01, -2.78228164e-01, -7.12748757e-03,  6.78590387e-02,  2.14355588e-01],
 [ 2.62079149e-01,  1.85508534e-01, -1.57810390e-01,  1.05326742e-01,  9.84615535e-02, -3.52108269e-03, -6.53948262e-02,  6.66806325e-02, -2.92594898e-02, -2.17454851e-01, -9.33591425e-02,  2.83896714e-01, -8.51555094e-02, -9.95357335e-02,  4.43061218e-02,  1.87818527e-01, -1.43299118e-01,  3.70591395e-02,  1.33136734e-01,  1.02670223e-01],
 [ 2.21058890e-01,  8.57007653e-02, -2.28942975e-01,  1.34579509e-01,  9.26003233e-02, -4.67872014e-03,  1.22330830e-01,  2.22851470e-01, -3.36151645e-02, -1.67876348e-01, -2.66449690e-01,  5.95586225e-02, -2.23794207e-02, -2.53398597e-01,  9.77038778e-03,  1.73354581e-01, -2.11659491e-01,  4.90292907e-02, -2.88792066e-02,  1.09532788e-01],
 [ 1.98641002e-01,  1.24949746e-01,  4.17527184e-03,  1.58797428e-01, -2.64622029e-02, -3.96137759e-02,  3.50261256e-02,  2.00344369e-01, -1.93230927e-01, -2.15248734e-01, -1.01148270e-01,  3.42605077e-02, -2.08921030e-01, -3.04967016e-02,  1.70102909e-01,  1.32285044e-01, -1.31079823e-01,  3.08992509e-02,  1.73474103e-01,  2.48266440e-02],
 [ 1.34492278e-01, -4.84862644e-03,  1.60150521e-03,  8.67680833e-02, -1.20350569e-01,  1.46253835e-02,  1.08882889e-01,  1.34438321e-01, -1.46666050e-01, -2.86606401e-01, -1.70948938e-01, -3.40271555e-02, -1.60982043e-01, -1.94879591e-01,  7.16814026e-02,  1.11541890e-01, -1.72177732e-01, -4.00693342e-02,  6.78327605e-02, -1.67964920e-02],
 [ 1.56493977e-01,  8.58306289e-02, -1.40218660e-02,  1.86431780e-02, -7.02860416e-04,  1.38828754e-01,  9.75655094e-02,  1.34227842e-01,  2.64309067e-02, -2.85512693e-02, -1.48900285e-01,  1.90380529e-01, -1.28622264e-01, -3.36418420e-01,  4.12690602e-02,  1.20646141e-01, -3.75158642e-03, -9.61981490e-02,  6.29304200e-02,  2.51771510e-01],
 [ 9.35709625e-02,  3.30307265e-03,  6.29669130e-02,  6.64731935e-02, -1.80321783e-01,  1.35368630e-01,  5.99521138e-02,  3.65096815e-02, -5.60554750e-02,  1.03062250e-01, -7.74819078e-03, -2.07814351e-02, -2.32762933e-01, -2.31155738e-01,  3.03191751e-01,  1.93368420e-01,  2.05832735e-01, -1.88039273e-01, -2.00035423e-02,  1.45105004e-01],
 [-5.70384376e-02, -4.00725119e-02,  1.48111299e-01,  1.35910884e-01, -2.97827214e-01,  1.93168774e-01, -7.36792460e-02,  6.82514235e-02, -1.42414317e-01,  9.17057768e-02, -1.36940584e-01,  3.58718000e-02, -2.15120822e-01, -2.39608184e-01,  4.21609223e-01,  1.32947778e-02,  8.69753286e-02, -9.73787531e-02,  1.33987114e-01, -7.50662461e-02],
 [ 1.98413536e-01, -2.06112519e-01,  2.12141171e-01,  1.94666237e-01, -5.35735548e-01,  6.10976331e-02, -3.45750362e-01,  4.36283927e-03,  4.63565178e-02,  9.55782756e-02, -2.72961389e-02, -1.27895474e-01, -4.38335724e-02,  8.66439287e-03,  3.23160499e-01,  3.44214559e-01,  2.09596917e-01, -1.96340099e-01,  1.49431989e-01, -3.30441177e-01],
 [ 4.11057621e-01,  2.32392043e-01,  4.06483382e-01,  3.00982177e-01, -1.17012031e-01,  5.15692472e-01, -6.42677128e-01,  5.96735030e-02, -5.75024366e-01, -3.16783756e-01,  1.60628557e-01,  7.11454898e-02, -1.09889992e-02,  8.17965150e-01,  1.28775373e-01,  4.07072902e-01,  1.78837299e-01, -2.02447370e-01,  2.32359722e-01, -7.03316867e-01],
 [ 1.63513139e-01, -7.82579333e-02,  1.30628958e-01,  2.50483245e-01, -1.85597137e-01,  5.54006286e-02, -3.05464536e-01, -2.30386928e-02, -1.25009436e-02,  9.32660252e-02,  1.61965296e-01,  4.12295982e-02,  1.56273231e-01,  3.20675790e-01,  1.66363582e-01,  2.35400066e-01,  2.35393435e-01,  2.09676981e-01,  1.15316130e-01, -5.45603573e-01],
 [-5.01310788e-02, -9.92963240e-02,  2.29089677e-01,  1.59867257e-01, -2.64370162e-02, -9.56202894e-02, -2.58443244e-02, -9.08706561e-02,  2.75241703e-01,  5.79338074e-02, -5.22681437e-02,  1.26489416e-01,  1.30693056e-02, -7.02009676e-03, -2.87255943e-01,  4.19872627e-02, -9.20478925e-02,  1.81505188e-01,  1.86393619e-01, -1.19175240e-01],
 [-5.09469584e-02, -3.84562127e-02,  2.65262723e-02,  3.40013206e-03,  6.24733865e-02, -3.72655913e-02,  6.94967657e-02, -4.29796949e-02, -9.26461071e-02, -3.20458338e-02,  9.72884223e-02, -7.34762102e-02, -8.38161930e-02,  4.52450961e-02, -7.80665427e-02, -3.03588789e-02,  4.11752705e-03, -7.74064064e-02,  5.35930917e-02, -1.32073127e-02],
 [ 3.81187610e-02,  1.65539518e-01,  1.98388640e-02, -3.20354968e-01, -2.26958171e-01, -3.25410664e-01, -9.81039479e-02,  3.88935894e-01,  2.54114538e-01,  3.51237863e-01, -3.47750150e-02, -1.94729568e-04,  3.04387122e-01, -9.28595886e-02,  1.38378114e-01,  2.57573694e-01, -4.19437978e-03, -2.41986126e-01, -9.06222537e-02, -3.57205682e-02],
 [ 3.94833595e-01,  3.84923398e-01,  6.16771691e-02,  2.66281694e-01, -2.02210501e-01, -1.73131555e-01, -1.22580417e-01, -2.48752713e-01,  9.89088789e-02,  8.04682374e-02,  2.92289436e-01, -7.20498264e-02, -2.89914552e-02, -1.00933664e-01, -1.81269750e-01,  8.22284594e-02,  4.06970054e-01, -2.69724578e-01,  4.10109907e-02,  5.07360220e-01],
 [-8.10627788e-02,  8.98002367e-03, -2.20115706e-01, -1.55997798e-01, -7.15512484e-02, -3.67392659e-01, -4.74346243e-02,  9.26102139e-03,  3.93818855e-01,  3.86099517e-01,  1.40495840e-02,  3.99812102e-01,  1.06236041e-01, -4.95451353e-02, -8.90493393e-02,  1.19036667e-01,  2.46034577e-01, -1.47334859e-01,  5.11811301e-02,  2.30229676e-01],
 [-1.84736937e-01,  6.17876090e-02, -2.91617453e-01, -3.06925356e-01,  1.83375254e-01, -2.40706220e-01,  6.07805662e-02, -9.50458422e-02,  4.84942853e-01,  4.93910134e-01, -6.73549101e-02, -9.23832580e-02, -1.65913310e-02,  2.32805699e-01,  3.41842063e-02,  2.06625819e-01, -1.32058144e-01, -2.25230172e-01,  1.77138463e-01,  2.16445085e-02],
 [-3.73059750e-01,  1.10839956e-01, -3.75797272e-01, -4.09379035e-01, -1.02960229e-01, -1.16479360e-01, -5.46189724e-03, -1.55868918e-01,  2.08136775e-02,  2.93907464e-01,  1.28068119e-01, -2.03298911e-01, -7.15171471e-02,  2.93929607e-01,  3.39490771e-01,  3.50438386e-01,  1.66776702e-02, -2.27231279e-01,  8.96694139e-02,  1.38902694e-01],
 [ 9.81337875e-02,  5.19785360e-02, -2.61737406e-01, -3.05352300e-01, -1.18719585e-01, -3.79205942e-01,  7.71087706e-02, -9.90498215e-02,  6.77559152e-02, -1.94822162e-01,  4.29532900e-02, -3.32592875e-02,  6.42746538e-02,  8.18718076e-02, -6.54761642e-02,  2.89327383e-01,  5.45738004e-02, -1.71313018e-01, -1.34337004e-02,  3.29909325e-01],
 [ 1.52795692e-03,  2.03367993e-02, -8.76552537e-02, -4.19495523e-01, -1.42053977e-01, -1.47845283e-01, -4.76894937e-02,  2.51705702e-02, -6.08187281e-02,  8.91940296e-02,  9.26155448e-02, -6.44114092e-02, -9.11164656e-02,  1.57433778e-01, -1.64143145e-01,  1.16125330e-01, -1.74297422e-01, -2.42032781e-01,  1.16250709e-01,  2.06470087e-01],
 [ 1.45012364e-01, -7.08930716e-02,  8.25707056e-03, -4.85029876e-01, -1.99660510e-01, -9.65681970e-02,  2.39905939e-02, -1.20918015e-02,  4.05733883e-02, -1.86507821e-01,  2.32756734e-01, -9.33813900e-02,  4.59073000e-02,  4.73037362e-01, -1.16447859e-01,  2.70515263e-01, -5.49579188e-02, -2.54651278e-01,  3.08510084e-02,  1.30376652e-01],
 [ 2.22074136e-01,  1.22851923e-01,  1.12875411e-02, -4.12837476e-01, -6.81778714e-02, -7.69793242e-02,  1.69751480e-01,  8.38248730e-02, -3.93876284e-02, -1.62367716e-01,  2.00207859e-01, -2.87538804e-02,  8.64725113e-02,  1.29526436e-01, -4.66150641e-02,  7.31498972e-02,  9.70894762e-04, -1.90809995e-01,  3.04940157e-02,  3.01266462e-01],
 [ 6.52999729e-02,  9.57522765e-02,  5.96168712e-02, -2.44810119e-01, -1.36259362e-01,  6.12568520e-02,  2.03564256e-01,  1.82958886e-01,  4.18661796e-02, -1.39783844e-01,  2.10146859e-01, -5.13365027e-03,  1.31585643e-01,  8.46561417e-02,  2.84272656e-02,  7.67965615e-02, -2.98430044e-02, -2.28847712e-01, -1.29355257e-02,  2.57195681e-01],
 [ 1.11481585e-01,  4.55688983e-02,  2.09894225e-01, -6.69519603e-02, -1.12023115e-01, -1.33006237e-02,  1.70799419e-01,  2.97502968e-02, -6.22828724e-03, -1.14331454e-01,  1.85439318e-01, -6.21332526e-02,  1.17132448e-01,  5.38202887e-03, -1.05898432e-01,  1.67983010e-01,  5.51672513e-03,  1.08103175e-03, -3.18383761e-02,  3.48079175e-01],
 [ 2.91445315e-01,  7.20885023e-02,  5.15023172e-02, -3.11575364e-02,  8.10071919e-03,  6.41846806e-02,  6.52594268e-02,  1.24716148e-01,  5.43041378e-02, -1.62855312e-01,  2.74164714e-02, -2.93269493e-02,  2.85555691e-01, -1.56828001e-01, -1.65872291e-01, -4.43553925e-02, -1.50478497e-01, -9.23027173e-02,  9.55276191e-04,  3.04822117e-01],
 [ 2.36483231e-01,  1.30181402e-01, -2.67690921e-05, -5.56706935e-02,  1.15755714e-01, -1.63615346e-02,  6.57111555e-02, -6.14677556e-03,  5.23209795e-02, -1.83304936e-01, -1.40568718e-01,  1.20354272e-01,  2.43727118e-01, -5.41859828e-02, -7.03198556e-03,  4.16237675e-02, -1.40741348e-01, -2.14331113e-02, -6.02964312e-02,  2.71435648e-01],
 [ 3.03342223e-01, -2.45325323e-02, -1.33127004e-01,  1.16078719e-01,  3.33617091e-01, -5.99616878e-02, -2.11166944e-02, -6.41796663e-02,  2.75612506e-03, -7.43686557e-02, -1.54876500e-01, -2.38890387e-02,  2.62463778e-01, -1.50206164e-01,  2.26234104e-02,  1.37138784e-01, -1.40483752e-01, -7.54177943e-02, -5.56203909e-02,  1.94131702e-01],
 [ 2.80317783e-01,  2.31595576e-01, -9.41269696e-02,  1.79051518e-01,  3.71535748e-01,  1.37893096e-01, -5.37704527e-02, -1.57038942e-02,  5.79855172e-03, -2.22638771e-01, -1.43379480e-01,  9.21042264e-02,  2.34232023e-01,  1.09868143e-02, -4.99588177e-02,  1.31375834e-01, -1.36338174e-01, -1.78003833e-01,  3.46620679e-02,  9.00658071e-02],
 [ 2.83091605e-01,  5.21503240e-02, -1.87850431e-01,  1.09625123e-01,  2.40023330e-01,  6.16349876e-02, -2.10267678e-02,  7.28000924e-02,  4.03608615e-03, -1.79526746e-01,  3.21948193e-02,  1.32166967e-01,  1.51237845e-01, -8.44226256e-02, -6.28809631e-02,  1.49334624e-01, -3.13205831e-02, -1.68455645e-01,  5.35884723e-02,  2.36308873e-01],
 [ 2.33850881e-01,  1.25395596e-01, -2.07510337e-01,  1.86156765e-01,  1.38947904e-01, -6.70665652e-02, -1.84537843e-02,  9.14866850e-02, -3.21665267e-03, -7.13512227e-02, -6.73758462e-02,  1.55896366e-01,  1.29852900e-02, -5.91861159e-02,  9.64824334e-02,  1.32344633e-01,  1.67621076e-01, -5.74165769e-02,  1.47704229e-01,  2.68294066e-01],
 [ 1.25412405e-01,  1.93475157e-01, -7.32551068e-02,  1.65370211e-01,  1.46900136e-02,  3.19004916e-02, -4.93303314e-02,  1.37622580e-01, -2.61666086e-02, -2.72039063e-02, -1.13536172e-01,  5.37844226e-02, -1.04680136e-01, -7.38665983e-02, -5.35181165e-02,  2.18508691e-01,  1.67445645e-01, -9.22324695e-03,  8.33674818e-02,  1.11421615e-01],
 [ 1.45830764e-02,  7.10261837e-02, -4.81311642e-02,  1.15281008e-01, -8.45378637e-03,  5.61539754e-02,  9.05972496e-02,  1.28482968e-01,  9.63760093e-02, -1.27544791e-01, -3.21272225e-03,  1.97405487e-01, -3.53707522e-02, -1.81612000e-01,  1.24748841e-01,  2.80330241e-01,  3.85812037e-02, -8.09965357e-02,  1.51254907e-01,  1.85999081e-01],
 [ 2.17264161e-01, -3.66202593e-02,  5.43467216e-02,  6.85572401e-02, -7.37830177e-02, -1.02548422e-02,  2.97024362e-02,  2.31137365e-01, -3.60799842e-02, -1.89899981e-01, -1.13876410e-01,  8.98676813e-02, -1.75566256e-01, -2.68244803e-01,  5.30063063e-02,  9.43954214e-02,  1.44479439e-01,  7.18766451e-02,  1.47564888e-01,  1.25464842e-01],
 [ 1.05706349e-01,  6.37170346e-03, -3.97995114e-03,  2.27121204e-01, -1.44102171e-01,  1.14054613e-01,  5.11760004e-02,  5.39004318e-02, -6.57591075e-02, -1.68469340e-01,  6.74834475e-02,  1.24626616e-02, -1.82713568e-01, -1.03220090e-01, -8.72966200e-02,  9.48125869e-02,  1.84573114e-01,  1.86859146e-02,  2.01227218e-01,  1.22418150e-01],
 [-3.78413647e-02, -4.17164043e-02,  1.34391353e-01,  7.89519474e-02, -1.39752075e-01,  2.39895761e-01,  7.73309097e-02,  1.21471778e-01,  1.51663661e-01, -1.15131885e-02, -1.74119741e-01,  6.51328042e-02, -2.06038222e-01, -5.09011187e-03,  6.02770299e-02, -9.69149079e-03,  2.20398232e-01, -7.40402639e-02,  1.72361165e-01,  1.25893533e-01],
 [-1.67754024e-01,  1.76728666e-01,  7.17815161e-02,  1.36070028e-01, -3.51609409e-01,  1.60195857e-01, -5.23779765e-02,  1.67628467e-01, -2.26404026e-01, -7.12952986e-02, -2.40990445e-01, -7.57516222e-03, -2.73827225e-01, -1.39427215e-01,  2.63396859e-01, -2.76859161e-02,  2.47516438e-01, -2.05342442e-01,  1.37263194e-01, -1.56456515e-01],
 [-4.00120206e-02,  1.35813296e-01,  3.87981325e-01,  2.60263622e-01, -4.64593023e-01, -6.84469985e-03, -1.69238940e-01, -7.18803182e-02, -4.71190602e-01, -5.21554537e-02,  1.95604768e-02,  7.85794407e-02, -1.10741973e-01,  2.81776842e-02,  2.80954003e-01, -1.07000925e-01,  3.52126837e-01, -9.76592079e-02,  3.71297114e-02, -2.00549468e-01],
 [ 3.59121710e-01,  1.07371703e-01,  4.09283876e-01,  3.93367767e-01, -5.18356204e-01,  1.02314495e-01, -3.90846252e-01, -1.20993778e-02, -6.49976790e-01, -2.85215318e-01, -1.72346011e-01, -1.87420622e-01,  1.97592109e-01,  5.63808262e-01,  2.17339978e-01,  4.18989450e-01,  4.36164826e-01, -2.10777782e-02,  4.60672379e-02, -4.75842357e-01],
 [ 2.05865264e-01, -9.19047892e-02,  6.15960583e-02,  1.30067468e-01, -3.01110834e-01, -1.74087867e-01, -1.78673461e-01, -2.43051618e-01,  5.65650277e-02,  2.23907173e-01,  2.67682672e-01,  8.68772343e-02,  1.93729401e-01,  3.58357489e-01,  3.60021144e-01,  4.51340258e-01,  2.92476773e-01,  3.01503330e-01,  1.00276217e-01, -5.04677057e-01],
 [-5.50508574e-02, -2.84935087e-01,  3.55622381e-01,  2.61389852e-01, -1.71754174e-02, -1.47266820e-01,  3.19632366e-02, -1.33556873e-01,  2.20582366e-01,  6.88991845e-02, -1.52433783e-01, -4.94844988e-02,  2.81452745e-01,  1.81879308e-02, -9.75564271e-02,  1.88979626e-01,  6.42332360e-02,  1.32873550e-01, -4.98644728e-03, -1.53882533e-01],
 [-1.87192466e-02,  3.05533141e-01, -2.20803227e-02,  2.80993730e-01,  1.79326549e-01, -2.50247717e-01,  2.04200804e-01,  1.72174916e-01, -6.33527786e-02,  2.50584126e-01,  4.49364111e-02, -2.24725738e-01, -1.30231410e-01, -2.74299800e-01,  9.75024998e-02, -2.31217016e-02, -2.22810164e-01, -2.81032532e-01, -1.84423760e-01,  2.83673733e-01],
 [ 2.58140624e-01, -3.48344669e-02,  1.49202392e-01, -2.03195199e-01,  4.93931118e-03, -8.24683830e-02,  1.91097841e-01,  1.44491103e-02,  2.80219227e-01,  3.09475243e-01,  1.39099941e-01, -1.14416644e-01, -1.69738442e-01,  5.29702231e-02, -5.96938469e-02, -5.93031980e-02,  2.25239798e-01,  2.14191601e-02, -4.96296585e-02,  1.99387908e-01],
 [ 1.08789489e-01,  2.94062108e-01,  1.01254940e-01,  1.39824256e-01, -3.26958746e-01, -1.25282228e-01, -5.17920405e-02, -1.52072325e-01,  1.21527486e-01,  3.36102813e-01,  1.11788280e-01,  2.00381055e-01, -3.53665464e-02,  1.05679601e-01,  2.61983007e-01, -6.18453212e-02,  3.40418726e-01,  5.67816421e-02,  6.21737391e-02,  1.67209849e-01],
 [-2.70285040e-01,  1.48034766e-01,  2.45466053e-01, -1.60988361e-01, -2.01613411e-01, -1.34551466e-01, -9.47306976e-02,  3.18296961e-02,  1.10788852e-01,  3.44083369e-01,  1.89786986e-01,  2.64157265e-01, -8.11670125e-02,  9.50391814e-02,  2.17692226e-01,  1.12227194e-01,  6.32268861e-02, -1.10785700e-01,  1.08502209e-01,  6.88121244e-02],
 [-2.39470840e-01,  4.28751856e-02, -3.54613930e-01, -2.77480483e-02,  1.94968581e-01, -1.96250215e-01, -4.46768031e-02, -2.81471878e-01,  4.27261919e-01,  3.51279348e-01,  3.72346677e-03,  4.58252914e-02, -6.44121319e-02,  2.28487775e-01,  7.37940371e-02,  1.10456772e-01, -1.53840408e-01, -3.73973221e-01,  2.20137924e-01, -1.98913999e-02],
 [-3.26650590e-02,  1.81658879e-01, -3.16534013e-01, -1.94112778e-01,  7.05514923e-02, -8.76425132e-02,  4.02497873e-02, -2.25393429e-01,  5.36404401e-02, -1.66087851e-01,  1.85054958e-01,  3.65676917e-02, -1.37863666e-01,  2.05651835e-01,  6.29852489e-02,  1.53202921e-01, -2.35143378e-02, -2.28121549e-01,  2.22763613e-01,  1.15063332e-01],
 [-2.08150521e-02,  1.59788489e-01, -1.02117345e-01, -1.27100676e-01, -4.66800891e-02, -1.54097527e-01,  7.98428729e-02, -1.88662652e-02,  1.07418545e-01, -3.43651801e-01,  9.97785255e-02,  8.65580812e-02, -9.79501195e-03,  1.87122896e-01, -7.09864721e-02,  1.43692240e-01, -1.13821022e-01, -2.23397523e-01,  1.57517940e-01,  2.04235151e-01],
 [ 1.92550514e-02,  2.03010142e-01, -5.68044148e-02, -3.81559253e-01, -4.09333259e-02, -7.87184760e-02,  2.86103170e-02,  1.41842082e-01,  5.74137308e-02, -2.00091705e-01,  1.51269808e-01,  8.16252083e-02, -2.92567611e-02,  2.76083171e-01, -4.68760319e-02,  9.57130119e-02, -5.25988974e-02, -2.87740737e-01,  1.79455116e-01,  9.48038548e-02],
 [ 1.11034371e-01,  6.13237768e-02, -6.61177859e-02, -2.24958614e-01, -4.41410840e-02,  2.24520434e-02,  1.50375381e-01,  2.33064648e-02,  1.88964345e-02, -2.76864737e-01,  2.74526536e-01,  1.84722319e-01,  7.04391226e-02,  1.95808202e-01, -4.61447164e-02,  8.18817839e-02, -4.32324596e-02, -3.16529274e-01,  8.49723890e-02,  2.39527524e-01],
 [ 1.10838801e-01,  8.01198855e-02,  1.05374120e-01, -2.57889301e-01, -5.53446002e-02,  1.96923385e-03,  1.80217549e-01,  3.57646123e-03,  2.07258221e-02, -2.63604909e-01,  3.94322783e-01,  1.69674724e-01, -8.15205202e-02,  2.27858171e-01,  1.84936434e-01,  2.75708102e-02,  7.56854787e-02, -1.21035755e-01, -2.36696173e-02,  2.77748048e-01],
 [ 1.31182700e-01, -8.29402450e-03,  6.84324577e-02, -1.31255209e-01, -7.24350214e-02,  1.15771465e-01,  4.38959412e-02,  1.50038093e-01,  2.06051409e-01, -1.83972135e-01,  3.00853193e-01,  1.55454557e-02, -4.39867936e-03,  7.34751001e-02,  3.32460478e-02, -1.83489677e-02, -4.89811637e-02, -9.32093188e-02,  2.48182043e-02,  2.98422784e-01],
 [ 1.76300183e-01,  1.10897444e-01,  2.47298449e-01,  5.20886704e-02, -1.80523217e-01,  1.08124346e-01,  1.18957916e-02, -3.82568277e-02,  1.66365564e-01, -2.07911253e-01,  1.36497557e-01, -3.03299483e-02,  7.81611423e-04,  3.56080234e-02,  1.29003488e-02,  2.24481570e-03,  8.40691477e-02,  1.21360188e-02, -2.04814281e-02,  3.21660936e-01],
 [ 1.51244864e-01,  1.64194033e-01,  3.05282950e-01,  6.06462806e-02, -1.39846206e-01, -1.80667210e-02, -8.94149989e-02,  6.15093149e-02, -2.69868281e-02, -1.73023552e-01, -2.60676742e-01,  5.90776503e-02, -3.68074998e-02, -1.23556182e-01, -1.25124142e-01,  1.82104949e-02,  2.42056530e-02, -9.92943998e-03,  1.96077868e-01,  3.67872089e-01],
 [ 7.81478956e-02,  1.41608998e-01,  1.03877172e-01,  2.90183630e-02, -3.05277165e-02,  1.10337071e-01, -1.23199947e-01,  1.26613855e-01,  5.58820600e-03, -1.94487572e-01, -3.27183217e-01,  3.42181930e-03,  3.97981964e-02, -1.25486016e-01, -1.03936959e-02,  7.43651390e-02, -9.45106447e-02,  1.38817102e-01,  1.90495387e-01,  1.43110514e-01],
 [ 1.95221245e-01, -1.89357195e-02, -6.69501126e-02, -1.50402235e-02,  2.02926546e-01, -4.71843854e-02, -7.05292299e-02,  5.89658432e-02,  8.33131373e-02, -2.37497807e-01, -1.90932259e-01, -1.57474190e-01,  2.13323951e-01, -1.81594297e-01, -1.44192502e-01,  1.91226184e-01, -7.54122017e-03, -9.77422111e-03,  1.31387599e-02,  4.35220361e-01],
 [ 6.20580204e-02,  4.19505462e-02, -2.57514238e-01, -1.50889577e-02,  3.19543153e-01, -2.67853644e-02,  4.21138257e-02,  5.16965315e-02,  1.12944096e-02, -9.09014493e-02, -1.60749257e-02, -1.60132110e-01,  3.51055145e-01, -8.74649361e-02, -1.04169205e-01,  1.19575761e-01,  9.86665785e-02, -1.15011975e-01, -1.16622727e-02,  2.66705900e-01],
 [-7.74249285e-02,  6.46986589e-02, -1.38521478e-01,  1.21352494e-01,  2.83861190e-01, -5.25305606e-02,  1.53425410e-01,  9.08032656e-02, -1.98928565e-01, -2.70853728e-01, -1.48109317e-01,  1.76291019e-02,  2.91970462e-01,  2.36926097e-02,  1.74777154e-02,  2.04285681e-01,  1.07919298e-01, -2.86386162e-01, -1.65260911e-01,  2.06080779e-01],
 [-1.22790642e-01, -7.85068199e-02, -8.75889137e-02,  1.60697579e-01,  1.03594348e-01,  1.65824071e-02,  1.85315326e-01,  2.14414224e-01,  5.98912127e-02, -6.60235509e-02, -4.78058755e-02,  1.23995133e-01,  7.99446031e-02, -2.83459276e-02,  1.29510492e-01,  2.23367631e-01,  2.90170491e-01, -1.49023861e-01,  1.09359719e-01,  3.07601064e-01],
 [-1.66759044e-01,  8.42684060e-02, -1.48723379e-01, -7.47798532e-02,  7.32834861e-02, -3.20375115e-02, -1.58916451e-02,  3.05976272e-01, -8.46776143e-02, -1.99296847e-01, -1.39163166e-01,  2.48901203e-01, -9.71602462e-03, -2.29166728e-02,  1.30888745e-01,  1.73016980e-01,  3.41370046e-01, -2.01741681e-02,  7.12430328e-02,  2.18550429e-01],
 [-1.84501782e-01, -4.94675227e-02,  3.34323682e-02,  7.70523772e-02, -1.28912255e-02, -2.26164237e-02,  1.88927315e-02,  2.45032966e-01,  4.61620316e-02, -1.14923082e-01, -2.90691275e-02,  1.28228053e-01, -1.20466106e-01, -1.26272961e-01,  8.28662366e-02,  2.47396216e-01,  2.09435672e-01,  2.57001258e-02,  1.89724490e-02,  1.17527910e-01],
 [-1.44708976e-01,  8.76498297e-02,  6.99442476e-02,  1.45953432e-01, -2.98349410e-02, -1.30649030e-01,  1.49431517e-02,  1.66549578e-01,  3.43378261e-02, -2.23128740e-02,  1.41819958e-02,  1.20468161e-04, -6.50702789e-02, -5.06216511e-02,  7.61959627e-02,  1.52364105e-01,  3.15393418e-01, -3.57082672e-02,  9.22608841e-03,  8.28683376e-02],
 [-5.07603437e-02,  4.28744443e-02,  3.75687052e-03,  2.59319514e-01, -5.91735542e-03, -2.41081435e-02,  1.05134085e-01,  6.84190392e-02, -7.32518211e-02, -2.02019900e-01, -4.43759263e-02,  2.13399995e-02,  1.39662856e-02, -3.79171013e-03,  9.52737108e-02, -7.39412531e-02,  2.73485214e-01, -2.98418757e-02,  2.61855256e-02,  2.01556198e-02],
 [-1.81905672e-01, -1.39523298e-02, -2.59989016e-02,  3.62864435e-02, -2.69976649e-02,  2.46165525e-02,  5.58176897e-02,  2.38673821e-01,  1.64267480e-01, -1.34272173e-01, -1.54845998e-01,  4.17165980e-02,  4.33559529e-03,  3.43825929e-02,  4.26199939e-03,  1.18921483e-02,  3.14532101e-01, -1.13189816e-01,  7.06166923e-02,  3.81638072e-02],
 [-2.12881818e-01, -1.72985531e-02,  3.09344102e-02,  1.16049610e-01, -3.88693988e-01,  2.12811515e-01, -1.99552272e-02,  2.04701975e-01, -5.29235862e-02, -1.26272768e-01, -3.53748143e-01, -2.88464993e-01, -1.43464535e-01,  1.87033787e-01, -9.27762035e-03, -3.39268930e-02,  4.71301049e-01, -2.56275237e-01, -2.17788648e-02,  8.59894082e-02],
 [-4.88209516e-01,  2.56231606e-01,  2.49543577e-01,  3.48976940e-01, -3.87090087e-01,  3.76320541e-01, -2.57892579e-01,  1.47654071e-01, -7.49876916e-01, -4.25786555e-01,  3.92415896e-02, -2.43224412e-01,  3.20869274e-02,  1.55665874e-01,  1.98541731e-01, -1.99655756e-01,  5.80592573e-01, -1.37378976e-01,  2.00975537e-01, -2.93987781e-01],
 [-7.44329095e-02,  3.95118222e-02,  1.07786253e-01,  3.47198278e-01, -5.77197611e-01,  2.30837703e-01, -5.40415227e-01, -4.99718860e-02, -8.60487342e-01, -1.15044095e-01,  2.88629979e-01, -8.01925287e-02,  4.20976371e-01,  3.50328028e-01,  4.63767231e-01,  1.26240984e-01,  6.27165198e-01,  2.00180054e-01,  9.55077037e-02, -5.09789169e-01],
 [ 1.23075135e-01,  1.35155618e-01,  5.11566028e-02, -7.89359584e-02, -1.90598428e-01,  3.23434919e-01, -2.47536853e-01,  1.64454579e-01,  3.97820659e-02, -1.87839806e-01,  8.54289085e-02,  6.18055128e-02,  7.36798495e-02,  6.95752680e-01,  2.80160397e-01,  2.83008724e-01,  3.79740521e-02, -3.26883160e-02,  2.19005853e-01, -5.14649868e-01],
 [-1.70449037e-02,  1.88651279e-01,  2.57516742e-01,  9.52682644e-02, -1.85807973e-01,  2.40515009e-01, -2.47368604e-01,  2.39845037e-01,  2.58202292e-02, -3.27935815e-01, -2.49969989e-01, -1.45179063e-01,  3.93401310e-02,  3.22288662e-01, -7.65150487e-02,  2.21144274e-01, -5.84852844e-02, -1.42141327e-01,  5.82554936e-02, -2.46043950e-01],
 [ 3.50954868e-02,  1.48902312e-01, -2.97724865e-02, -1.97368845e-01,  5.81576675e-02, -2.38890857e-01, -9.93368328e-02,  1.60803556e-01, -7.79890567e-02,  2.34659091e-01,  4.98829875e-03, -7.18521476e-02,  1.86315589e-02, -1.09540127e-01, -1.98917776e-01,  6.00096248e-02,  1.59017697e-01, -7.90361241e-02,  8.64535719e-02,  2.44026616e-01],
 [ 2.18640909e-01,  2.24621221e-01, -3.22753310e-01, -3.32233965e-01, -2.27387622e-01, -3.28452468e-01, -1.50048763e-01, -1.35318199e-02,  3.25844064e-02,  3.78060907e-01,  9.08562541e-02,  2.09153011e-01, -8.90724510e-02, -3.22623342e-01, -1.31439835e-01, -9.75843892e-02,  2.82470703e-01, -1.72420457e-01,  3.81168544e-01,  2.49375790e-01],
 [ 9.13779065e-02,  2.57095098e-01, -1.33155838e-01, -2.32899468e-02, -1.75672948e-01, -2.81396061e-01, -3.66177559e-02, -7.94593170e-02,  2.90371448e-01,  8.13897178e-02, -1.58468425e-01,  3.22232962e-01,  7.65426606e-02,  1.05875611e-01,  3.69044244e-01,  5.23859961e-03,  1.63790643e-01,  2.98424494e-02, -1.53928488e-01,  2.25937903e-01],
 [-1.84455384e-02,  1.73213631e-01,  1.61901981e-01, -1.57448277e-01, -4.80598621e-02, -1.58719212e-01,  5.45517281e-02,  2.94015199e-01,  1.91300243e-01, -6.02243952e-02,  1.36246011e-01, -4.60624918e-02, -1.43057909e-02, -1.60583353e-03,  9.63217914e-02,  1.35820568e-01, -1.22893583e-02, -1.21714011e-01,  3.57621983e-02,  1.42259568e-01],
 [ 2.10131079e-01,  1.71155974e-01, -2.18336955e-01, -8.58378634e-02,  1.96878031e-01, -3.57557893e-01, -6.50946274e-02,  2.45812498e-02,  5.16284108e-01,  9.24828351e-02,  1.24827512e-01,  7.93608204e-02, -6.24328144e-02,  9.63980798e-03,  2.11886596e-02,  4.50750105e-02, -2.00071201e-01, -2.73629814e-01,  1.35726899e-01,  8.07153210e-02],
 [ 1.73051924e-01,  1.09202296e-01, -2.65956014e-01, -2.66224623e-01, -1.58639457e-02, -4.04249310e-01,  1.91575348e-01, -1.22540124e-01,  2.56281435e-01, -2.41442285e-02, -4.71938141e-02,  9.86358970e-02, -8.73159468e-02,  2.37599969e-01, -1.80101216e-01,  1.68994993e-01,  5.25494479e-02, -2.39461526e-01,  1.41143590e-01,  2.25930378e-01],
 [-6.44841138e-03,  1.61398813e-01, -6.40601590e-02, -3.94053936e-01, -4.01437376e-03, -1.32101193e-01,  1.22900955e-01,  1.10416628e-01,  7.35694692e-02, -3.77496898e-01,  2.23067164e-01,  2.99748451e-01,  3.89165315e-03,  1.73259333e-01, -1.80236280e-01,  9.55555215e-02,  2.17428966e-03, -1.00867167e-01,  1.53627440e-01, -1.04882680e-02],
 [ 5.63673899e-02, -5.71375862e-02,  4.59865620e-03, -2.95009494e-01, -1.81419495e-02, -5.60202636e-02,  1.05787687e-01,  1.99894786e-01,  1.47255599e-01, -1.70585304e-01,  2.55530030e-01,  3.13119620e-01,  4.89803478e-02,  2.17031777e-01, -5.13319783e-02, -4.64775227e-02,  2.89954664e-03, -1.64626315e-01,  7.98805654e-02, -6.54789358e-02],
 [ 1.11553103e-01, -4.07059081e-02,  3.53385918e-02, -2.11465999e-01,  7.85076618e-02,  3.39090228e-02, -7.02087805e-02,  1.56751081e-01,  1.65330142e-01, -2.17412606e-01,  3.18756998e-01,  2.83961624e-01,  9.92951617e-02,  1.74469694e-01,  3.11134215e-02,  4.52141128e-02, -9.61282663e-03, -1.43328577e-01,  8.61055497e-03, -6.93912506e-02],
 [ 6.09017462e-02, -2.30447226e-03,  1.89453317e-03, -2.04387177e-02, -2.46279519e-02, -1.77060254e-02,  1.50617197e-01,  2.10576504e-01,  1.50110379e-01, -2.40448192e-01,  3.51084501e-01,  2.08084121e-01,  5.73804341e-02,  1.30355358e-01,  7.69089311e-02,  4.89871763e-02,  1.06108263e-01, -9.57920253e-02,  1.93820372e-02,  1.12873226e-01],
 [ 8.95311013e-02, -4.50890586e-02,  7.26686493e-02,  3.86418812e-02,  7.02579618e-02,  1.91760883e-01,  1.51450634e-02,  5.00084981e-02,  1.17247283e-01, -4.38146144e-01,  2.88648188e-01,  4.70957421e-02,  4.26695831e-02,  7.17021450e-02,  4.10193839e-04, -1.70304831e-02,  2.50072218e-02, -2.99109053e-02, -8.13459978e-02,  2.20830694e-01],
 [ 1.93578333e-01, -2.60379948e-02,  2.32704744e-01,  1.69428244e-01, -1.97894111e-01,  1.30339593e-01, -1.02668077e-01,  3.22184674e-02,  2.04904042e-02, -2.78661162e-01,  2.02637315e-02,  1.25242444e-02, -1.83530035e-03, -4.67534065e-02, -3.15875150e-02, -1.60242751e-01,  2.54974276e-01, -1.03857018e-01,  2.06178784e-01,  2.41861254e-01],
 [ 1.96680099e-01,  5.37573546e-02,  1.56033233e-01,  3.57266851e-02, -1.60443470e-01,  7.92842824e-03, -1.44498467e-01,  1.15551077e-01,  8.07399675e-02, -2.59607643e-01, -5.15856147e-01, -1.00613069e-02, -5.09737283e-02, -2.09959805e-01, -2.33248100e-02, -3.63983698e-02,  3.82189631e-01,  4.80384342e-02,  1.54473886e-01,  3.17734212e-01],
 [-5.50241731e-02,  5.77118248e-02,  1.71990633e-01,  5.58928847e-02, -6.25140145e-02,  1.15440615e-01, -1.37812078e-01,  1.55090824e-01, -9.69360471e-02, -2.12808639e-01, -6.86980069e-01, -1.13544069e-01,  7.74173811e-02, -3.96013141e-01, -4.12115939e-02, -7.23095015e-02,  1.82854563e-01,  1.81809321e-01,  2.97522601e-02,  3.30005705e-01],
 [ 1.48305781e-02, -6.78869113e-02,  9.44776759e-02, -1.50687262e-01,  6.94309846e-02, -6.33377209e-02, -2.16907740e-01,  1.85870111e-01,  4.55442481e-02, -2.41593257e-01, -3.72501105e-01, -2.56206512e-01,  2.15702429e-01, -2.32404754e-01, -1.81148559e-01, -1.02964669e-01,  1.69113114e-01,  6.19197190e-02,  2.47631110e-02,  3.88879955e-01],
 [-3.00641477e-01, -2.05795079e-01, -2.25326121e-01, -1.13733746e-01,  1.08923554e-01, -7.20408559e-02,  2.10655034e-01,  1.30306751e-01,  1.54915377e-01, -1.22134484e-01, -2.07601607e-01, -1.50069907e-01,  4.53456163e-01, -1.22942418e-01, -1.69237107e-01, -1.83160584e-02,  2.25920066e-01, -1.07086487e-01,  2.24987157e-02,  2.07802817e-01],
 [-5.13815463e-01, -1.10944293e-01, -1.88406378e-01, -1.44879565e-01,  3.64301875e-02, -1.28816128e-01,  1.52925387e-01,  2.30506271e-01,  1.00823440e-01, -1.33288698e-02, -1.44481674e-01,  1.73789501e-01,  2.39281073e-01,  6.97310362e-03,  4.47100177e-02,  2.90331934e-02,  1.98009029e-01, -2.13106394e-01, -7.65391886e-02,  2.34807745e-01],
 [-5.72945058e-01, -2.68972814e-02, -1.12356476e-01, -5.77061921e-02, -2.66090315e-02, -1.18829841e-02,  1.23432815e-01,  3.63877326e-01,  1.49581013e-02, -3.47275920e-02, -3.28930542e-02,  3.17762643e-01,  5.89595512e-02,  6.67712912e-02, -2.88917478e-02,  6.84530661e-02,  4.15516406e-01, -2.25139961e-01, -1.18799381e-01,  2.17174575e-01],
 [-5.65868735e-01, -1.43084200e-02, -1.52476966e-01, -3.77508551e-02,  8.42042454e-03, -5.30498363e-02,  1.45035401e-01,  2.23345906e-01, -3.32323089e-02, -1.52470320e-01,  2.51583718e-02,  2.44982451e-01,  4.21130657e-02, -1.68769345e-01,  8.20122734e-02,  1.17246002e-01,  4.52821344e-01,  5.83213232e-02, -1.95748569e-03,  2.48074442e-01],
 [-6.45924032e-01,  9.51734930e-02, -4.28360887e-02, -3.16276923e-02,  1.63986415e-01, -6.84509277e-02,  3.41417268e-02,  3.54816318e-01, -9.43092722e-03, -1.91513509e-01,  1.01420572e-02,  2.47965738e-01, -7.59233758e-02, -7.64695974e-03,  1.15384474e-01,  5.78642674e-02,  4.13589627e-01,  4.44626901e-03, -5.12738451e-02,  2.17211366e-01],
 [-4.68399018e-01,  1.47408515e-01,  9.90681425e-02,  1.30740460e-02,  3.84248123e-02, -2.21812010e-01,  7.91302398e-02,  1.71323687e-01,  3.69947106e-02, -1.68539286e-01,  4.52604098e-03,  2.21126169e-01, -6.83518723e-02,  5.34292459e-02,  9.30760428e-02, -1.93330143e-02,  2.57443458e-01,  2.91280039e-02, -1.10882565e-01,  1.25541732e-01],
 [-5.08849740e-01,  1.54851764e-01,  1.88823968e-01,  3.82158756e-02, -2.69770958e-02, -4.68980558e-02,  5.43067269e-02,  1.97537780e-01, -2.25023255e-02,  1.42249074e-02, -9.71542671e-02, -1.49892583e-01, -2.91365907e-02,  1.30262211e-01,  8.17049742e-02,  6.91771880e-02,  2.62090862e-01, -3.90865244e-02, -3.80257294e-02,  1.16007291e-02],
 [-3.09265167e-01,  5.07032275e-02, -1.80033132e-01, -7.56315365e-02, -6.40855134e-02, -1.38519749e-01, -5.17691821e-02,  2.28337422e-01,  1.33984014e-01, -1.66531309e-01, -1.72396496e-01, -9.18826684e-02,  1.72648683e-01,  2.52665222e-01,  5.92691824e-02, -4.65516262e-02,  2.08582178e-01, -1.06997244e-01, -1.36961147e-01,  1.04520373e-01],
 [-3.57110977e-01,  1.12271354e-01, -1.08795557e-02,  5.34325689e-02, -7.43391737e-02,  8.95853415e-02,  8.65904167e-02,  2.32871354e-01,  2.93994918e-02, -9.54036340e-02, -1.71518341e-01, -2.73682445e-01,  4.43497263e-02,  2.35703364e-01,  2.59670168e-02, -1.84809223e-01,  3.32773328e-01, -2.12816119e-01, -6.65077046e-02, -5.34949750e-02],
 [-4.10482109e-01,  2.28770450e-01,  3.36100757e-01,  3.74446809e-01, -4.51442271e-01,  3.60137105e-01, -9.88034531e-02,  3.49113911e-01, -5.69965065e-01, -1.89310640e-01,  4.03211027e-01, -4.19687092e-01,  9.86929610e-02,  9.74829048e-02,  1.15302475e-02, -3.62287104e-01,  6.19966745e-01, -2.92145133e-01,  7.33812675e-02, -2.15318412e-01],
 [-8.85482579e-02,  5.58433495e-02,  2.62651175e-01,  2.76814669e-01, -5.50460279e-01,  3.00720572e-01, -5.59740663e-01,  2.54367977e-01, -5.88487327e-01, -3.52519095e-01,  1.55815944e-01, -1.72228813e-01,  4.97907221e-01,  5.10469079e-01,  3.36465865e-01, -1.65166989e-01,  4.14743125e-01, -1.78384557e-01,  1.67419329e-01, -4.81352180e-01],
 [-3.36994939e-02,  1.35056481e-01,  4.08918187e-02, -2.90819835e-02, -3.66132408e-01,  2.12390840e-01, -5.50016642e-01,  3.10106277e-01,  1.27834439e-01, -2.49128535e-01, -3.01029570e-02, -1.73821021e-02,  3.45469385e-01,  3.15691173e-01, -2.03570276e-02, -1.28350213e-01,  1.68292657e-01,  3.70576768e-03,  3.09026778e-01, -5.83433509e-01],
 [ 1.30010843e-01, -1.57832369e-01, -1.79663137e-01, -1.48065403e-01, -2.27186456e-01, -1.67918682e-01, -9.17331427e-02, -1.24568030e-01,  1.59968019e-01, -1.06038675e-01, -5.19788302e-02, -3.83383296e-02,  2.11171210e-01, -2.47458592e-01, -1.19033478e-01,  1.94033608e-01,  3.41956854e-01, -2.25417823e-01,  2.11474463e-01, -2.08193660e-01],
 [ 2.23818533e-02,  4.34404649e-02, -1.51142124e-02, -1.53644010e-01,  6.70125484e-02, -8.89863372e-02,  2.64717676e-02,  1.32548079e-01, -1.67134833e-02,  1.49176195e-01,  5.64803667e-02, -1.05965726e-01,  6.60698339e-02,  5.59783168e-02, -1.37898147e-01, -8.48017558e-02,  2.39264309e-01,  3.10305376e-02,  1.33243337e-01,  1.16931677e-01],
 [ 2.16011226e-01,  1.06953338e-01, -2.59299994e-01, -8.67382884e-02,  2.08626222e-03, -2.98646428e-02, -1.85219005e-01,  2.00206619e-02,  2.31825903e-01,  3.78844857e-01,  1.53343603e-01,  7.42624700e-02, -1.18998013e-01, -3.90684247e-01, -4.76436280e-02, -1.69742540e-01,  3.17727566e-01, -3.81111093e-02,  3.11763108e-01,  2.19383344e-01],
 [-2.83207670e-02,  4.25847590e-01, -7.83368126e-02, -2.80392319e-01, -5.96914403e-02, -4.57789093e-01,  1.61761031e-01,  2.75147986e-02,  2.57312089e-01,  2.32763350e-01, -1.85808521e-02,  6.16879761e-02, -3.06987464e-01, -1.78298131e-01, -2.90191378e-02, -6.75475399e-04,  3.14989030e-01, -2.79394418e-01, -3.21503705e-03,  3.68171364e-01],
 [ 1.55129999e-01,  2.18090460e-01,  6.83445707e-02, -3.31832975e-01,  2.26458609e-02, -2.09865957e-01,  4.66339849e-02,  2.90326267e-01,  3.05676997e-01, -1.49569735e-01, -4.97807227e-02,  1.22821830e-01,  1.29146412e-01,  1.12429328e-01,  2.03616098e-01, -2.36297771e-02, -1.04343094e-01,  3.43103372e-02, -1.77162975e-01,  1.04140140e-01],
 [ 1.44285992e-01,  2.31626421e-01,  3.82993743e-02, -2.22325087e-01,  3.00829336e-02, -3.85217190e-01, -7.84261823e-02,  1.64055809e-01,  1.61556393e-01, -2.14763999e-01,  2.04482287e-01,  1.24270178e-01, -1.14315033e-01,  9.67019871e-02,  1.59466136e-02,  4.25689071e-02, -7.49216601e-02, -1.91008925e-01,  2.43027374e-01, -5.66697456e-02],
 [ 2.52977967e-01,  1.81525260e-01, -6.13210648e-02, -3.97445887e-01,  7.55444318e-02, -2.10915357e-01,  2.90259451e-01, -1.30409598e-02,  1.77525088e-01, -8.76517445e-02,  1.61784396e-01,  1.23428293e-01, -1.92273378e-01,  2.09645182e-01, -8.64297524e-02,  1.76567823e-01,  4.93687801e-02,  6.88332766e-02,  8.77415538e-02,  1.11984521e-01],
 [ 1.43090755e-01,  9.67197046e-02, -3.90105546e-02, -4.64600265e-01, -5.77753894e-02, -6.06340095e-02,  3.20939630e-01,  5.99948131e-02,  2.23991156e-01, -2.01486006e-01,  6.41024560e-02,  2.10102797e-01,  1.09363031e-02,  2.67270237e-01, -2.15042844e-01,  1.01676449e-01, -2.67229951e-03,  9.89449099e-02,  1.71905011e-02, -1.09150466e-02],
 [ 1.82609469e-01,  1.85775533e-02,  8.96671340e-02, -2.33249962e-01, -3.12700234e-02, -9.80453659e-03,  4.03053313e-02,  1.55405805e-01,  9.15167779e-02, -9.61051881e-02,  2.71188080e-01,  1.33196250e-01,  7.22707156e-03,  2.70313770e-01,  4.36535925e-02, -2.87111551e-02,  1.11386888e-01, -1.40635341e-01, -6.58448413e-02, -2.05827624e-01],
 [ 2.17779025e-01, -5.30325994e-02,  6.97317943e-02, -2.85577495e-02,  9.15451441e-03,  1.10027522e-01,  1.04750888e-02,  9.76238698e-02,  1.74076170e-01, -2.35396698e-01,  3.68226230e-01,  8.56967792e-02, -2.76239612e-03,  2.38525957e-01,  9.10256580e-02,  6.05042316e-02,  1.85312390e-01, -1.07006244e-01,  9.73428115e-02, -6.07772581e-02],
 [ 1.08105883e-01,  3.99976373e-02,  7.85360560e-02, -4.12417874e-02, -4.76837978e-02,  1.82095423e-01, -1.89923160e-02,  1.35316670e-01,  5.05179688e-02, -2.59444743e-01,  5.16291261e-01,  8.83717239e-02, -3.40677239e-02,  1.08735554e-01,  8.76711980e-02, -5.93748176e-03,  3.24335486e-01, -4.02737036e-02,  1.15651406e-01,  8.62189606e-02],
 [ 6.96085542e-02,  4.83859703e-02,  3.69126536e-02,  1.62046403e-01, -9.66965556e-02,  1.71167463e-01, -1.53948620e-01,  8.51247758e-02, -9.42342430e-02, -1.96392745e-01,  5.25486827e-01, -7.20974803e-02, -1.40466094e-01,  5.14088124e-02, -6.78711710e-03, -1.32617608e-01,  1.96373925e-01, -4.91023324e-02,  1.27760783e-01,  4.07313965e-02],
