first_layer_weights:
 [[-0.05734742  0.03238516 -0.0131309  ...  0.0538438   0.06947835
  -0.08367986]
 [-0.04574046  0.01396968  0.03617882 ...  0.08624725 -0.00907713
   0.02075221]
 [-0.0462221  -0.01265661 -0.02388771 ...  0.01787594  0.05865231
  -0.02859867]
 ...
 [ 0.08237264  0.05092688 -0.0561528  ...  0.05016512 -0.06105468
  -0.0708051 ]
 [ 0.01267599 -0.00062798  0.03164186 ... -0.08033977  0.03497818
  -0.04936257]
 [-0.07966912  0.00122225  0.01436885 ...  0.0019754  -0.03939991
   0.07504976]] 
-----------
first_layer_biases:
 [-0.0180229  -0.05185258 -0.07380836 -0.06695198 -0.51160127 -0.03668379
 -0.04722319  0.03628216  0.05233814  0.3702851  -0.12966041 -0.2395938
  0.12044918 -0.07785489  0.00470146 -0.08835129  0.7251768   0.11014404
  0.3813814   0.24397661] 
-----------
-----------
second_layer_weights:
 [[-0.14898142  0.11176224 -0.18184839  0.01475042 -1.3020742   0.8911642
   0.4506968   0.35559794 -0.6825692   0.29967   ]
 [ 0.30354506 -1.2575797  -0.49922714  0.09171315  0.26948544 -0.21767972
  -0.05040022  0.4497028   0.5669265  -0.02249288]
 [ 0.18492776 -0.41283646 -0.05077624 -0.09359017 -0.0918397   0.25278127
   0.6508589  -0.62917227  0.24681503 -1.0154036 ]
 [ 0.28749537 -0.42829025 -0.17855944 -0.263233   -0.2001618   0.5816766
   0.52557003 -0.7747826  -0.06378494  0.4804278 ]
 [ 0.38530543  0.24177484  0.2786974  -0.00772023 -0.84185416 -0.5448636
   0.46916416 -0.3635583   0.1671324   0.34700316]
 [-0.3061627   0.700827    0.48937836 -0.7005312   0.24280655  0.06576189
   0.01269353 -0.58230585  0.46637616  0.35609108]
 [ 0.40202528  0.55720055  0.52929235 -0.43660465  0.2940682  -0.42981356
   0.09468375 -0.31770453 -0.5535658   0.5891131 ]
 [ 0.12353495  0.5655566  -0.03858546  0.5065713  -0.6062107   0.27961892
  -0.47189295  0.10151479  0.4562366   0.08250338]
 [-0.9581498   0.58648497  0.6651573   0.5265609  -0.5867176  -0.03293226
   0.06797066  0.49474686 -0.40565455 -0.7732925 ]
 [ 0.0799716   0.3356234   0.1128471   0.25455517 -0.00155973 -0.1851727
   0.6763234   0.09741738 -0.6959262  -1.3255944 ]
 [ 0.14019953 -0.38556352 -1.0292182  -1.0430739   0.17855032  0.28404453
   0.5628663   0.26253572 -0.12117667  0.18916303]
 [ 0.12976398  0.16296323 -0.01159878  0.3126462   0.546798   -1.2633878
  -0.42265695  0.44269794 -0.05562312  0.707389  ]
 [-0.5118954  -0.05814311 -0.32845026  0.48216608 -0.08906322 -0.23051296
  -1.1491957   0.04459784 -0.46486366  0.5442692 ]
 [-0.5657534  -0.7050618   0.63420194  0.22712292  0.32133728  0.29722074
   0.28738973 -0.5642939   0.6523944  -0.20696469]
 [ 0.21137293 -0.3098802  -0.13420956  0.31605205  0.32178643  0.04884663
   0.05562724 -1.1449679   0.05626617 -0.46083325]
 [-0.1936861  -0.44014257  0.4367897   0.400708   -0.86027527  0.51569635
  -1.0818942  -0.43304172 -0.23770985 -0.4904236 ]
 [ 0.21535096 -0.45608985 -0.00529958 -0.3071444   0.20741658  0.53229195
  -0.35369784  0.5564315  -0.2591222   0.04390877]
 [-0.4020325   0.3596244   0.96913415 -0.29651996  0.5089108   0.0119906
   0.153572   -0.66312295 -0.6129849   0.578082  ]
 [-0.8628167   0.50079125 -0.40329042 -0.33602753  0.26502192 -0.4045243
  -0.01535754  0.4175777   0.24802491 -0.03905395]
 [ 0.40067425 -0.7292119   0.2254473  -0.2243573  -0.5358094  -0.12744993
  -0.3729982   0.6164847  -0.39772326 -0.38605994]] 
-----------
second_layer_biases:
 [-0.19449125  0.41917142 -0.16768914 -0.21250191  0.19403027  0.38531384
 -0.19261985  0.3959989  -0.3675089  -0.27362648] 
-----------
